{"learner":{"attributes":{"best_iteration":"451","best_score":"0.750174611489436","scikit_learn":"{\"_estimator_type\": \"classifier\"}"},"feature_names":["current_fight_open_odds_diff","current_fight_open_odds","current_fight_open_odds_b","significant_strikes_landed_per_min_diff_fighter_avg_last_3","current_fight_age_diff","significant_strikes_landed_diff_fighter_avg_last_3","total_strikes_landed_career_avg_diff_fighter_b_avg_last_3","total_strikes_attempted_diff_fighter_avg_last_3","open_odds_b_fighter_b_avg_last_3","significant_strikes_landed_diff_fighter_b_avg_last_3","total_strikes_landed_diff_fighter_avg_last_3","years_of_experience_diff_fighter_avg_last_3","current_fight_years_experience_diff","total_strikes_landed_diff_fighter_b_avg_last_3","current_fight_pre_fight_elo_diff","takedown_attempted_career_avg_fighter_b_avg_last_3","takedown_rate_diff_fighter_b_avg_last_3","open_odds_b_fighter_avg_last_3","submission_attempt_career_avg_diff_fighter_b_avg_last_3","days_since_last_fight_fighter_avg_last_3","significant_strikes_landed_per_min_diff_fighter_b_avg_last_3","closing_range_start_fighter_b_avg_last_3","submission_attempt_diff_fighter_avg_last_3","current_fight_age_b","significant_strikes_rate_b_fighter_b_avg_last_3","head_landed_diff_fighter_b_avg_last_3","significant_strikes_landed_fighter_avg_last_3","ground_landed_career_avg_diff_fighter_avg_last_3","weight_class_fight_2","total_strikes_landed_career_avg_b_fighter_avg_last_3","combined_success_rate_b_fighter_b_avg_last_3","knockdowns_career_diff_fighter_avg_last_3","significant_strikes_attempted_diff_fighter_avg_last_3","leg_landed_career_avg_b_fighter_b_avg_last_3","distance_landed_diff_fighter_b_avg_last_3","leg_landed_fighter_b_avg_last_3","win_rate_by_decision_fighter_avg_last_3","pre_fight_elo_fighter_b_avg_last_3","submission_attempt_fighter_b_avg_last_3","open_odds_fighter_b_avg_last_3","leg_landed_career_avg_fighter_b_avg_last_3","significant_strikes_attempted_career_avg_fighter_avg_last_3","total_strikes_attempted_diff_fighter_b_avg_last_3","significant_strikes_rate_b_fighter_avg_last_3","days_since_last_fight_fighter_b_avg_last_3","significant_strikes_attempted_diff_fighter_b_avg_last_3","total_strikes_landed_per_min_fighter_avg_last_3","control_b_fighter_avg_last_3","years_of_experience_fighter_avg_last_3","days_since_last_fight_diff_fighter_b_avg_last_3","significant_strikes_landed_career_avg_diff_fighter_b_avg_last_3","control_career_avg_fighter_avg_last_3","wins_by_decision_fighter_b_avg_last_3","leg_landed_career_avg_fighter_avg_last_3","takedown_rate_diff_fighter_avg_last_3","submission_attempt_fighter_avg_last_3","pre_fight_elo_fighter_avg_last_3","win_rate_by_decision_fighter_b_avg_last_3","pre_fight_elo_b_fighter_b_avg_last_3","submission_attempt_career_avg_fighter_avg_last_3","ground_landed_career_diff_fighter_b_avg_last_3","open_odds_fighter_avg_last_3","combined_success_rate_b_fighter_avg_last_3","total_strikes_landed_per_min_fighter_b_avg_last_3","wins_by_decision_fighter_avg_last_3","submission_attempt_diff_fighter_b_avg_last_3","submission_attempt_career_avg_diff_fighter_avg_last_3","total_strikes_landed_fighter_b_avg_last_3","takedown_attempted_career_b_fighter_b_avg_last_3","significant_strikes_rate_career_avg_b_fighter_b_avg_last_3","ground_landed_career_diff_fighter_avg_last_3","current_fight_age","time_career_fighter_avg_last_3","takedown_attempted_career_b_fighter_avg_last_3","total_strikes_rate_b_fighter_avg_last_3","takedown_attempted_career_avg_b_fighter_b_avg_last_3","total_strikes_landed_career_avg_fighter_avg_last_3","head_attempted_diff_fighter_b_avg_last_3","leg_landed_career_avg_b_fighter_avg_last_3","years_of_experience_fighter_b_avg_last_3","takedown_attempted_career_avg_fighter_avg_last_3","leg_landed_fighter_avg_last_3","significant_strikes_landed_fighter_b_avg_last_3","submission_attempt_career_avg_b_fighter_b_avg_last_3","distance_landed_fighter_b_avg_last_3","wins_by_submission_fighter_avg_last_3","closing_range_start_fighter_avg_last_3","control_b_fighter_b_avg_last_3","significant_strikes_landed_career_avg_diff_fighter_avg_last_3","knockdowns_career_diff_fighter_b_avg_last_3","submission_attempt_career_avg_b_fighter_avg_last_3","pre_fight_elo_b_fighter_avg_last_3"],"feature_types":["float","float","float","float","float","float","float","float","float","float","float","float","float","float","float","float","float","float","float","float","float","float","float","float","float","float","float","float","c","float","float","float","float","float","float","float","float","float","float","float","float","float","float","float","float","float","float","float","float","float","float","float","float","float","float","float","float","float","float","float","float","float","float","float","float","float","float","float","float","float","float","float","float","float","float","float","float","float","float","float","float","float","float","float","float","float","float","float","float","float","float","float"],"gradient_booster":{"model":{"gbtree_model_param":{"num_parallel_tree":"1","num_trees":"702"},"iteration_indptr":[0,1,2,3,4,5,6,7,8,9,10,11,12,13,14,15,16,17,18,19,20,21,22,23,24,25,26,27,28,29,30,31,32,33,34,35,36,37,38,39,40,41,42,43,44,45,46,47,48,49,50,51,52,53,54,55,56,57,58,59,60,61,62,63,64,65,66,67,68,69,70,71,72,73,74,75,76,77,78,79,80,81,82,83,84,85,86,87,88,89,90,91,92,93,94,95,96,97,98,99,100,101,102,103,104,105,106,107,108,109,110,111,112,113,114,115,116,117,118,119,120,121,122,123,124,125,126,127,128,129,130,131,132,133,134,135,136,137,138,139,140,141,142,143,144,145,146,147,148,149,150,151,152,153,154,155,156,157,158,159,160,161,162,163,164,165,166,167,168,169,170,171,172,173,174,175,176,177,178,179,180,181,182,183,184,185,186,187,188,189,190,191,192,193,194,195,196,197,198,199,200,201,202,203,204,205,206,207,208,209,210,211,212,213,214,215,216,217,218,219,220,221,222,223,224,225,226,227,228,229,230,231,232,233,234,235,236,237,238,239,240,241,242,243,244,245,246,247,248,249,250,251,252,253,254,255,256,257,258,259,260,261,262,263,264,265,266,267,268,269,270,271,272,273,274,275,276,277,278,279,280,281,282,283,284,285,286,287,288,289,290,291,292,293,294,295,296,297,298,299,300,301,302,303,304,305,306,307,308,309,310,311,312,313,314,315,316,317,318,319,320,321,322,323,324,325,326,327,328,329,330,331,332,333,334,335,336,337,338,339,340,341,342,343,344,345,346,347,348,349,350,351,352,353,354,355,356,357,358,359,360,361,362,363,364,365,366,367,368,369,370,371,372,373,374,375,376,377,378,379,380,381,382,383,384,385,386,387,388,389,390,391,392,393,394,395,396,397,398,399,400,401,402,403,404,405,406,407,408,409,410,411,412,413,414,415,416,417,418,419,420,421,422,423,424,425,426,427,428,429,430,431,432,433,434,435,436,437,438,439,440,441,442,443,444,445,446,447,448,449,450,451,452,453,454,455,456,457,458,459,460,461,462,463,464,465,466,467,468,469,470,471,472,473,474,475,476,477,478,479,480,481,482,483,484,485,486,487,488,489,490,491,492,493,494,495,496,497,498,499,500,501,502,503,504,505,506,507,508,509,510,511,512,513,514,515,516,517,518,519,520,521,522,523,524,525,526,527,528,529,530,531,532,533,534,535,536,537,538,539,540,541,542,543,544,545,546,547,548,549,550,551,552,553,554,555,556,557,558,559,560,561,562,563,564,565,566,567,568,569,570,571,572,573,574,575,576,577,578,579,580,581,582,583,584,585,586,587,588,589,590,591,592,593,594,595,596,597,598,599,600,601,602,603,604,605,606,607,608,609,610,611,612,613,614,615,616,617,618,619,620,621,622,623,624,625,626,627,628,629,630,631,632,633,634,635,636,637,638,639,640,641,642,643,644,645,646,647,648,649,650,651,652,653,654,655,656,657,658,659,660,661,662,663,664,665,666,667,668,669,670,671,672,673,674,675,676,677,678,679,680,681,682,683,684,685,686,687,688,689,690,691,692,693,694,695,696,697,698,699,700,701,702],"tree_info":[0,0,0,0,0,0,0,0,0,0,0,0,0,0,0,0,0,0,0,0,0,0,0,0,0,0,0,0,0,0,0,0,0,0,0,0,0,0,0,0,0,0,0,0,0,0,0,0,0,0,0,0,0,0,0,0,0,0,0,0,0,0,0,0,0,0,0,0,0,0,0,0,0,0,0,0,0,0,0,0,0,0,0,0,0,0,0,0,0,0,0,0,0,0,0,0,0,0,0,0,0,0,0,0,0,0,0,0,0,0,0,0,0,0,0,0,0,0,0,0,0,0,0,0,0,0,0,0,0,0,0,0,0,0,0,0,0,0,0,0,0,0,0,0,0,0,0,0,0,0,0,0,0,0,0,0,0,0,0,0,0,0,0,0,0,0,0,0,0,0,0,0,0,0,0,0,0,0,0,0,0,0,0,0,0,0,0,0,0,0,0,0,0,0,0,0,0,0,0,0,0,0,0,0,0,0,0,0,0,0,0,0,0,0,0,0,0,0,0,0,0,0,0,0,0,0,0,0,0,0,0,0,0,0,0,0,0,0,0,0,0,0,0,0,0,0,0,0,0,0,0,0,0,0,0,0,0,0,0,0,0,0,0,0,0,0,0,0,0,0,0,0,0,0,0,0,0,0,0,0,0,0,0,0,0,0,0,0,0,0,0,0,0,0,0,0,0,0,0,0,0,0,0,0,0,0,0,0,0,0,0,0,0,0,0,0,0,0,0,0,0,0,0,0,0,0,0,0,0,0,0,0,0,0,0,0,0,0,0,0,0,0,0,0,0,0,0,0,0,0,0,0,0,0,0,0,0,0,0,0,0,0,0,0,0,0,0,0,0,0,0,0,0,0,0,0,0,0,0,0,0,0,0,0,0,0,0,0,0,0,0,0,0,0,0,0,0,0,0,0,0,0,0,0,0,0,0,0,0,0,0,0,0,0,0,0,0,0,0,0,0,0,0,0,0,0,0,0,0,0,0,0,0,0,0,0,0,0,0,0,0,0,0,0,0,0,0,0,0,0,0,0,0,0,0,0,0,0,0,0,0,0,0,0,0,0,0,0,0,0,0,0,0,0,0,0,0,0,0,0,0,0,0,0,0,0,0,0,0,0,0,0,0,0,0,0,0,0,0,0,0,0,0,0,0,0,0,0,0,0,0,0,0,0,0,0,0,0,0,0,0,0,0,0,0,0,0,0,0,0,0,0,0,0,0,0,0,0,0,0,0,0,0,0,0,0,0,0,0,0,0,0,0,0,0,0,0,0,0,0,0,0,0,0,0,0,0,0,0,0,0,0,0,0,0,0,0,0,0,0,0,0,0,0,0,0,0,0,0,0,0,0,0,0,0,0,0,0,0,0,0,0,0,0,0,0,0,0,0,0,0,0,0,0,0,0,0,0,0,0,0,0,0,0,0,0,0,0,0,0,0,0,0,0,0,0,0,0,0,0,0,0,0,0,0,0,0,0,0,0,0,0,0,0,0,0,0,0,0,0,0,0,0,0,0,0,0,0,0,0,0,0,0,0,0,0,0,0,0,0,0,0,0,0,0,0,0,0,0,0,0,0,0,0,0,0,0,0,0,0,0,0],"trees":[{"base_weights":[-0E0,5.9688404E-2,-4.6115097E-1,-7.237957E-2,-8.441069E-3],"categories":[],"categories_nodes":[],"categories_segments":[],"categories_sizes":[],"default_left":[0,0,0,0,0],"id":0,"left_children":[1,-1,3,-1,-1],"loss_changes":[2.1432652E2,0E0,2.980397E1,0E0,0E0],"parents":[2147483647,0,0,2,2],"right_children":[2,-1,4,-1,-1],"split_conditions":[-1.35E2,5.9688404E-2,-1.85E2,-7.237957E-2,-8.441069E-3],"split_indices":[1,0,2,0,0],"split_type":[0,0,0,0,0],"sum_hessian":[5.644999E2,2.3899995E2,3.2549994E2,1.4199997E2,1.8349997E2],"tree_param":{"num_deleted":"0","num_feature":"92","num_nodes":"5","size_leaf_vector":"1"}},{"base_weights":[-0E0,-5.58254E-2,4.5349643E-1,7.222203E-2,9.870198E-3],"categories":[],"categories_nodes":[],"categories_segments":[],"categories_sizes":[],"default_left":[0,0,0,0,0],"id":1,"left_children":[1,-1,3,-1,-1],"loss_changes":[1.9607274E2,0E0,2.805542E1,0E0,0E0],"parents":[2147483647,0,0,2,2],"right_children":[2,-1,4,-1,-1],"split_conditions":[-1.35E2,-5.58254E-2,-3.4E2,7.222203E-2,9.870198E-3],"split_indices":[2,0,0,0,0],"split_type":[0,0,0,0,0],"sum_hessian":[5.596018E2,2.3806918E2,3.2153262E2,1.3187924E2,1.8965338E2],"tree_param":{"num_deleted":"0","num_feature":"92","num_nodes":"5","size_leaf_vector":"1"}},{"base_weights":[-0E0,-5.3688876E-2,3.960054E-1,6.711008E-2,6.4147405E-2,2.3950685E-2,-0E0],"categories":[],"categories_nodes":[],"categories_segments":[],"categories_sizes":[],"default_left":[0,0,0,0,0,0,0],"id":2,"left_children":[1,-1,3,-1,5,-1,-1],"loss_changes":[1.6962857E2,0E0,2.8763786E1,0E0,9.667059E0,0E0,0E0],"parents":[2147483647,0,0,2,2,4,4],"right_children":[2,-1,4,-1,6,-1,-1],"split_conditions":[-1.35E2,-5.3688876E-2,-1.9E2,6.711008E-2,2.6566416E-1,2.3950685E-2,-0E0],"split_indices":[2,0,1,0,90,0,0],"split_type":[0,0,0,0,0,0,0],"sum_hessian":[5.5962646E2,2.3558224E2,3.2404425E2,1.289313E2,1.9511293E2,6.0960987E1,1.3415195E2],"tree_param":{"num_deleted":"0","num_feature":"92","num_nodes":"7","size_leaf_vector":"1"}},{"base_weights":[-0E0,3.7231466E-1,-4.6713668E-1,5.51725E-2,1.7842224E-3,-1.1273583E-2,-6.465927E-2],"categories":[],"categories_nodes":[],"categories_segments":[],"categories_sizes":[],"default_left":[0,0,0,0,0,0,0],"id":3,"left_children":[1,3,5,-1,-1,-1,-1],"loss_changes":[1.310214E2,1.698101E1,8.692726E0,0E0,0E0,0E0,0E0],"parents":[2147483647,0,0,1,1,2,2],"right_children":[2,4,6,-1,-1,-1,-1],"split_conditions":[2.4E2,-1.75E2,1.7E2,5.51725E-2,1.7842224E-3,-1.1273583E-2,-6.465927E-2],"split_indices":[0,1,1,0,0,0,0],"split_type":[0,0,0,0,0,0,0],"sum_hessian":[5.597886E2,3.187874E2,2.4100119E2,1.6040393E2,1.5838348E2,1.3437756E2,1.0662363E2],"tree_param":{"num_deleted":"0","num_feature":"92","num_nodes":"7","size_leaf_vector":"1"}},{"base_weights":[-0E0,4.4548426E-2,-3.5184813E-1,-6.543834E-2,-5.513654E-2,-2.3116907E-2,-0E0],"categories":[],"categories_nodes":[],"categories_segments":[],"categories_sizes":[],"default_left":[0,0,0,0,0,0,0],"id":4,"left_children":[1,-1,3,5,-1,-1,-1],"loss_changes":[1.2782739E2,0E0,1.4872353E1,8.746558E0,0E0,0E0,0E0],"parents":[2147483647,0,0,2,2,3,3],"right_children":[2,-1,4,6,-1,-1,-1],"split_conditions":[-1.3E2,4.4548426E-2,3.5E2,2.6566416E-1,-5.513654E-2,-2.3116907E-2,-0E0],"split_indices":[1,0,0,83,0,0,0],"split_type":[0,0,0,0,0,0,0],"sum_hessian":[5.541086E2,2.4364848E2,3.104601E2,1.8275603E2,1.2770408E2,5.7355877E1,1.25400154E2],"tree_param":{"num_deleted":"0","num_feature":"92","num_nodes":"7","size_leaf_vector":"1"}},{"base_weights":[-0E0,3.745109E-2,-3.414076E-1,-5.2182216E-2,-5.4901987E-3],"categories":[],"categories_nodes":[],"categories_segments":[],"categories_sizes":[],"default_left":[0,0,0,0,0],"id":5,"left_children":[1,-1,3,-1,-1],"loss_changes":[1.0475205E2,0E0,1.3171848E1,0E0,0E0],"parents":[2147483647,0,0,2,2],"right_children":[2,-1,4,-1,-1],"split_conditions":[-1.35E2,3.745109E-2,-1.85E2,-5.2182216E-2,-5.4901987E-3],"split_indices":[1,0,2,0,0],"split_type":[0,0,0,0,0],"sum_hessian":[5.5403265E2,2.3407076E2,3.1996188E2,1.37917E2,1.8204488E2],"tree_param":{"num_deleted":"0","num_feature":"92","num_nodes":"5","size_leaf_vector":"1"}},{"base_weights":[-0E0,3.865698E-2,-2.8936124E-1,-0E0,-3.987693E-2],"categories":[],"categories_nodes":[],"categories_segments":[],"categories_sizes":[],"default_left":[0,0,0,0,0],"id":6,"left_children":[1,-1,3,-1,-1],"loss_changes":[9.462948E1,0E0,1.1315708E1,0E0,0E0],"parents":[2147483647,0,0,2,2],"right_children":[2,-1,4,-1,-1],"split_conditions":[-1.35E2,3.865698E-2,0E0,-0E0,-3.987693E-2],"split_indices":[1,0,13,0,0],"split_type":[0,0,0,0,0],"sum_hessian":[5.5057935E2,2.3274193E2,3.1783743E2,1.17282455E2,2.0055498E2],"tree_param":{"num_deleted":"0","num_feature":"92","num_nodes":"5","size_leaf_vector":"1"}},{"base_weights":[-0E0,-3.373317E-2,2.8974575E-1,4.710687E-2,1.5641648E-3],"categories":[],"categories_nodes":[],"categories_segments":[],"categories_sizes":[],"default_left":[0,0,0,0,0],"id":7,"left_children":[1,-1,3,-1,-1],"loss_changes":[8.263956E1,0E0,1.35530205E1,0E0,0E0],"parents":[2147483647,0,0,2,2],"right_children":[2,-1,4,-1,-1],"split_conditions":[-1.35E2,-3.373317E-2,-1.85E2,4.710687E-2,1.5641648E-3],"split_indices":[2,0,1,0,0],"split_type":[0,0,0,0,0],"sum_hessian":[5.502413E2,2.3101358E2,3.192277E2,1.3610507E2,1.8312262E2],"tree_param":{"num_deleted":"0","num_feature":"92","num_nodes":"5","size_leaf_vector":"1"}},{"base_weights":[-0E0,-3.1266462E-2,2.7771142E-1,4.5218106E-2,3.9789084E-2,2.0385046E-2,-0E0],"categories":[],"categories_nodes":[],"categories_segments":[],"categories_sizes":[],"default_left":[0,0,0,0,0,0,0],"id":8,"left_children":[1,-1,3,-1,5,-1,-1],"loss_changes":[7.376125E1,0E0,1.0545391E1,0E0,8.684116E0,0E0,0E0],"parents":[2147483647,0,0,2,2,4,4],"right_children":[2,-1,4,-1,6,-1,-1],"split_conditions":[-1.35E2,-3.1266462E-2,-1.9E2,4.5218106E-2,2.6566416E-1,2.0385046E-2,-0E0],"split_indices":[2,0,1,0,90,0,0],"split_type":[0,0,0,0,0,0,0],"sum_hessian":[5.415516E2,2.2911617E2,3.124354E2,1.2005494E2,1.9238046E2,5.931221E1,1.3306825E2],"tree_param":{"num_deleted":"0","num_feature":"92","num_nodes":"7","size_leaf_vector":"1"}},{"base_weights":[-0E0,-2.9832749E-2,2.5036678E-1,3.3197252E-3,4.593913E-2],"categories":[],"categories_nodes":[],"categories_segments":[],"categories_sizes":[],"default_left":[0,0,0,0,0],"id":9,"left_children":[1,-1,3,-1,-1],"loss_changes":[6.540101E1,0E0,1.3054844E1,0E0,0E0],"parents":[2147483647,0,0,2,2],"right_children":[2,-1,4,-1,-1],"split_conditions":[-1.35E2,-2.9832749E-2,1.7E2,3.3197252E-3,4.593913E-2],"split_indices":[2,0,2,0,0],"split_type":[0,0,0,0,0],"sum_hessian":[5.453093E2,2.306568E2,3.1465256E2,2.1354073E2,1.0111184E2],"tree_param":{"num_deleted":"0","num_feature":"92","num_nodes":"5","size_leaf_vector":"1"}},{"base_weights":[-0E0,2.7283393E-2,-2.0641735E-1,-2.8512375E-3,-4.4463117E-2],"categories":[],"categories_nodes":[],"categories_segments":[],"categories_sizes":[],"default_left":[0,0,0,0,0],"id":10,"left_children":[1,-1,3,-1,-1],"loss_changes":[5.1951828E1,0E0,1.3540627E1,0E0,0E0],"parents":[2147483647,0,0,2,2],"right_children":[2,-1,4,-1,-1],"split_conditions":[-1.35E2,2.7283393E-2,1.85E2,-2.8512375E-3,-4.4463117E-2],"split_indices":[1,0,1,0,0],"split_type":[0,0,0,0,0],"sum_hessian":[5.423214E2,2.2741965E2,3.1490176E2,2.394854E2,7.541636E1],"tree_param":{"num_deleted":"0","num_feature":"92","num_nodes":"5","size_leaf_vector":"1"}},{"base_weights":[-0E0,-3.689279E-2,1.3125248E-1,-0E0,3.764907E-2,1.2015941E-2,-4.934107E-3],"categories":[],"categories_nodes":[],"categories_segments":[],"categories_sizes":[],"default_left":[0,0,0,0,0,0,0],"id":11,"left_children":[1,-1,3,5,-1,-1,-1],"loss_changes":[5.1764202E1,0E0,1.881008E1,8.944391E0,0E0,0E0,0E0],"parents":[2147483647,0,0,2,2,3,3],"right_children":[2,-1,4,6,-1,-1,-1],"split_conditions":[-1.75E2,-3.689279E-2,1.7E2,-1E0,3.764907E-2,1.2015941E-2,-4.934107E-3],"split_indices":[2,0,2,4,0,0,0],"split_type":[0,0,0,0,0,0,0],"sum_hessian":[5.45174E2,1.555164E2,3.8965762E2,2.9012592E2,9.953171E1,1.15784744E2,1.7434117E2],"tree_param":{"num_deleted":"0","num_feature":"92","num_nodes":"7","size_leaf_vector":"1"}},{"base_weights":[-0E0,-2.6025563E-1,1.662668E-1,-3.633297E-2,-0E0,-0E0,2.725062E-2],"categories":[],"categories_nodes":[],"categories_segments":[],"categories_sizes":[],"default_left":[0,0,0,0,0,0,0],"id":12,"left_children":[1,3,5,-1,-1,-1,-1],"loss_changes":[4.0039734E1,8.510292E0,1.0322857E1,0E0,0E0,0E0,0E0],"parents":[2147483647,0,0,1,1,2,2],"right_children":[2,4,6,-1,-1,-1,-1],"split_conditions":[-1.35E2,2.0533333E2,0E0,-3.633297E-2,-0E0,-0E0,2.725062E-2],"split_indices":[2,44,10,0,0,0,0],"split_type":[0,0,0,0,0,0,0],"sum_hessian":[5.3587897E2,2.2774562E2,3.0813333E2,1.4958157E2,7.816404E1,1.1481527E2,1.9331807E2],"tree_param":{"num_deleted":"0","num_feature":"92","num_nodes":"7","size_leaf_vector":"1"}},{"base_weights":[-0E0,2.6794216E-1,-1.6808686E-1,-0E0,3.675022E-2,-3.3395447E-2,-0E0],"categories":[],"categories_nodes":[],"categories_segments":[],"categories_sizes":[],"default_left":[0,0,0,0,0,0,0],"id":13,"left_children":[1,3,5,-1,-1,-1,-1],"loss_changes":[4.115793E1,8.658705E0,9.516993E0,0E0,0E0,0E0,0E0],"parents":[2147483647,0,0,1,1,2,2],"right_children":[2,4,6,-1,-1,-1,-1],"split_conditions":[-1.35E2,-2E-1,-2.1E2,-0E0,3.675022E-2,-3.3395447E-2,-0E0],"split_indices":[1,3,2,0,0,0,0],"split_type":[0,0,0,0,0,0,0],"sum_hessian":[5.3276056E2,2.2078308E2,3.119775E2,6.9270164E1,1.5151292E2,1.0283085E2,2.0914665E2],"tree_param":{"num_deleted":"0","num_feature":"92","num_nodes":"7","size_leaf_vector":"1"}},{"base_weights":[-0E0,-2.0939225E-2,1.826949E-1,3.943164E-2,5.3214184E-3],"categories":[],"categories_nodes":[],"categories_segments":[],"categories_sizes":[],"default_left":[0,0,0,0,0],"id":14,"left_children":[1,-1,3,-1,-1],"loss_changes":[3.684407E1,0E0,8.187992E0,0E0,0E0],"parents":[2147483647,0,0,2,2],"right_children":[2,-1,4,-1,-1],"split_conditions":[-1.35E2,-2.0939225E-2,-2.85E2,3.943164E-2,5.3214184E-3],"split_indices":[2,0,1,0,0],"split_type":[0,0,0,0,0],"sum_hessian":[5.322082E2,2.2484975E2,3.0735846E2,4.6332157E1,2.610263E2],"tree_param":{"num_deleted":"0","num_feature":"92","num_nodes":"5","size_leaf_vector":"1"}},{"base_weights":[-0E0,1.0688307E-1,-2.9584846E-2,-1.1123588E-2,1.9495286E-2],"categories":[],"categories_nodes":[],"categories_segments":[],"categories_sizes":[],"default_left":[0,1,0,0,0],"id":15,"left_children":[1,3,-1,-1,-1],"loss_changes":[3.2936245E1,1.7481405E1,0E0,0E0,0E0],"parents":[2147483647,0,0,1,1],"right_children":[2,4,-1,-1,-1],"split_conditions":[3.45E2,-1.4E2,-2.9584846E-2,-1.1123588E-2,1.9495286E-2],"split_indices":[0,17,0,0,0],"split_type":[0,0,0,0,0],"sum_hessian":[5.2831274E2,4.0900827E2,1.19304504E2,7.412736E1,3.348809E2],"tree_param":{"num_deleted":"0","num_feature":"92","num_nodes":"5","size_leaf_vector":"1"}},{"base_weights":[-0E0,8.460374E-2,-2.525561E-2,2.3853995E-2,-0E0,-1.7934497E-2,9.1291923E-4],"categories":[],"categories_nodes":[],"categories_segments":[],"categories_sizes":[],"default_left":[0,0,0,0,0,0,0],"id":16,"left_children":[1,3,-1,-1,5,-1,-1],"loss_changes":[2.679299E1,1.3481702E1,0E0,0E0,9.711033E0,0E0,0E0],"parents":[2147483647,0,0,1,1,4,4],"right_children":[2,4,-1,-1,6,-1,-1],"split_conditions":[3.3E2,-1E0,-2.525561E-2,2.3853995E-2,0E0,-1.7934497E-2,9.1291923E-4],"split_indices":[0,4,0,0,22,0,0],"split_type":[0,0,0,0,0,0,0],"sum_hessian":[5.323685E2,3.8788586E2,1.4448264E2,1.6745616E2,2.2042972E2,5.9347713E1,1.61082E2],"tree_param":{"num_deleted":"0","num_feature":"92","num_nodes":"7","size_leaf_vector":"1"}},{"base_weights":[-0E0,2.2212945E-2,-1.05778486E-1,-3.5400417E-2,-2.2140434E-3,1.39045E-3,-1.7679092E-2],"categories":[],"categories_nodes":[],"categories_segments":[],"categories_sizes":[],"default_left":[0,0,0,0,0,0,0],"id":17,"left_children":[1,-1,3,-1,5,-1,-1],"loss_changes":[2.5546856E1,0E0,1.2330361E1,0E0,1.1066689E1,0E0,0E0],"parents":[2147483647,0,0,2,2,4,4],"right_children":[2,-1,4,-1,6,-1,-1],"split_conditions":[-1.75E2,2.2212945E-2,-2.85E2,-3.5400417E-2,4.8040156E0,1.39045E-3,-1.7679092E-2],"split_indices":[1,0,2,0,48,0,0],"split_type":[0,0,0,0,0,0,0],"sum_hessian":[5.300696E2,1.488265E2,3.8124307E2,4.804588E1,3.331972E2,2.3406651E2,9.9130684E1],"tree_param":{"num_deleted":"0","num_feature":"92","num_nodes":"7","size_leaf_vector":"1"}},{"base_weights":[-0E0,1.19386375E-1,-2.064162E-2,-0E0,2.4738563E-2],"categories":[],"categories_nodes":[],"categories_segments":[],"categories_sizes":[],"default_left":[0,0,0,0,0],"id":18,"left_children":[1,3,-1,-1,-1],"loss_changes":[2.7283287E1,9.168799E0,0E0,0E0,0E0],"parents":[2147483647,0,0,1,1],"right_children":[2,4,-1,-1,-1],"split_conditions":[2E0,1.15E2,-2.064162E-2,-0E0,2.4738563E-2],"split_indices":[4,2,0,0,0],"split_type":[0,0,0,0,0],"sum_hessian":[5.2743176E2,3.2272958E2,2.0470216E2,1.8111575E2,1.4161385E2],"tree_param":{"num_deleted":"0","num_feature":"92","num_nodes":"5","size_leaf_vector":"1"}},{"base_weights":[-0E0,7.5680554E-2,-2.6472813E-2,-2.6375162E-3,1.9866329E-2],"categories":[],"categories_nodes":[],"categories_segments":[],"categories_sizes":[],"default_left":[0,0,0,0,0],"id":19,"left_children":[1,3,-1,-1,-1],"loss_changes":[2.3822002E1,1.4039513E1,0E0,0E0,0E0],"parents":[2147483647,0,0,1,1],"right_children":[2,4,-1,-1,-1],"split_conditions":[1.7E2,1.3333334E0,-2.6472813E-2,-2.6375162E-3,1.9866329E-2],"split_indices":[1,5,0,0,0],"split_type":[0,0,0,0,0],"sum_hessian":[5.279603E2,4.3248117E2,9.547914E1,1.817845E2,2.5069666E2],"tree_param":{"num_deleted":"0","num_feature":"92","num_nodes":"5","size_leaf_vector":"1"}},{"base_weights":[-0E0,2.3209773E-2,-8.594599E-2,1.1029709E-2,-1.9745866E-2,1.7718837E-2,-0E0],"categories":[],"categories_nodes":[],"categories_segments":[],"categories_sizes":[],"default_left":[0,0,0,0,0,0,0],"id":20,"left_children":[1,-1,3,5,-1,-1,-1],"loss_changes":[2.1885605E1,0E0,1.2097139E1,8.117903E0,0E0,0E0,0E0],"parents":[2147483647,0,0,2,2,3,3],"right_children":[2,-1,4,6,-1,-1,-1],"split_conditions":[-3.7E2,2.3209773E-2,1E0,-2.2580197E-1,-1.9745866E-2,1.7718837E-2,-0E0],"split_indices":[0,0,9,18,0,0,0],"split_type":[0,0,0,0,0,0,0],"sum_hessian":[5.2705536E2,9.984074E1,4.272146E2,1.7188672E2,2.5532788E2,4.5384823E1,1.2650189E2],"tree_param":{"num_deleted":"0","num_feature":"92","num_nodes":"7","size_leaf_vector":"1"}},{"base_weights":[-0E0,1.4895516E-2,-1.350967E-2],"categories":[],"categories_nodes":[],"categories_segments":[],"categories_sizes":[],"default_left":[0,0,0],"id":21,"left_children":[1,-1,-1],"loss_changes":[2.2968374E1,0E0,0E0],"parents":[2147483647,0,0],"right_children":[2,-1,-1],"split_conditions":[-1.35E2,1.4895516E-2,-1.350967E-2],"split_indices":[1,0,0],"split_type":[0,0,0],"sum_hessian":[5.1680176E2,2.1315211E2,3.0364963E2],"tree_param":{"num_deleted":"0","num_feature":"92","num_nodes":"3","size_leaf_vector":"1"}},{"base_weights":[-0E0,1.630019E-1,-1.0169711E-1,-0E0,2.7469097E-2,-0E0,-2.2524903E-2],"categories":[],"categories_nodes":[],"categories_segments":[],"categories_sizes":[],"default_left":[0,0,0,0,0,0,0],"id":22,"left_children":[1,3,5,-1,-1,-1,-1],"loss_changes":[1.833514E1,8.839491E0,8.172197E0,0E0,0E0,0E0,0E0],"parents":[2147483647,0,0,1,1,2,2],"right_children":[2,4,6,-1,-1,-1,-1],"split_conditions":[-1E0,2.3148148E-1,4.508593E-1,-0E0,2.7469097E-2,-0E0,-2.2524903E-2],"split_indices":[4,36,43,0,0,0,0],"split_type":[0,0,0,0,0,0,0],"sum_hessian":[5.260388E2,1.998742E2,3.261646E2,6.700915E1,1.3286505E2,1.9301743E2,1.3314719E2],"tree_param":{"num_deleted":"0","num_feature":"92","num_nodes":"7","size_leaf_vector":"1"}},{"base_weights":[-0E0,2.0421779E-2,-6.5725476E-2,-2.20148E-2,-0E0],"categories":[],"categories_nodes":[],"categories_segments":[],"categories_sizes":[],"default_left":[0,0,0,0,0],"id":23,"left_children":[1,-1,3,-1,-1],"loss_changes":[1.7215326E1,0E0,1.2770708E1,0E0,0E0],"parents":[2147483647,0,0,2,2],"right_children":[2,-1,4,-1,-1],"split_conditions":[-1.4833333E2,2.0421779E-2,0E0,-2.20148E-2,-0E0],"split_indices":[8,0,10,0,0],"split_type":[0,0,0,0,0],"sum_hessian":[5.201633E2,1.008726E2,4.1929074E2,1.6307468E2,2.5621606E2],"tree_param":{"num_deleted":"0","num_feature":"92","num_nodes":"5","size_leaf_vector":"1"}},{"base_weights":[-0E0,2.6433783E-2,-5.43103E-2,2.4024297E-3,-1.7042313E-2],"categories":[],"categories_nodes":[],"categories_segments":[],"categories_sizes":[],"default_left":[0,0,0,0,0],"id":24,"left_children":[1,-1,3,-1,-1],"loss_changes":[1.778169E1,0E0,1.21339445E1,0E0,0E0],"parents":[2147483647,0,0,2,2],"right_children":[2,-1,4,-1,-1],"split_conditions":[-2.85E2,2.6433783E-2,1.2746565E1,2.4024297E-3,-1.7042313E-2],"split_indices":[1,0,63,0,0],"split_type":[0,0,0,0,0],"sum_hessian":[5.157165E2,4.395028E1,4.7176624E2,2.1564153E2,2.561247E2],"tree_param":{"num_deleted":"0","num_feature":"92","num_nodes":"5","size_leaf_vector":"1"}},{"base_weights":[-0E0,-2.7413804E-2,3.2747693E-2,-2.565971E-2,-0E0,9.448642E-3,-6.976821E-3],"categories":[],"categories_nodes":[],"categories_segments":[],"categories_sizes":[],"default_left":[0,0,0,0,0,0,0],"id":25,"left_children":[1,3,-1,-1,5,-1,-1],"loss_changes":[2.1262749E1,1.2199734E1,0E0,0E0,9.607784E0,0E0,0E0],"parents":[2147483647,0,0,1,1,4,4],"right_children":[2,4,-1,-1,6,-1,-1],"split_conditions":[2.05E2,-2.85E2,3.2747693E-2,-2.565971E-2,1.2746565E1,9.448642E-3,-6.976821E-3],"split_indices":[2,2,0,0,63,0,0],"split_type":[0,0,0,0,0,0,0],"sum_hessian":[5.223891E2,4.734836E2,4.8905483E1,4.4720745E1,4.2876288E2,1.9730363E2,2.3145923E2],"tree_param":{"num_deleted":"0","num_feature":"92","num_nodes":"7","size_leaf_vector":"1"}},{"base_weights":[-0E0,-5.49564E-2,2.2564834E-2,4.714826E-3,-1.5959624E-2],"categories":[],"categories_nodes":[],"categories_segments":[],"categories_sizes":[],"default_left":[0,0,0,0,0],"id":26,"left_children":[1,3,-1,-1,-1],"loss_changes":[1.7761005E1,1.2375003E1,0E0,0E0,0E0],"parents":[2147483647,0,0,1,1],"right_children":[2,4,-1,-1,-1],"split_conditions":[1.7E2,-1E0,2.2564834E-2,4.714826E-3,-1.5959624E-2],"split_indices":[2,4,0,0,0],"split_type":[0,0,0,0,0],"sum_hessian":[5.1633093E2,4.249324E2,9.1398544E1,1.4966084E2,2.7527158E2],"tree_param":{"num_deleted":"0","num_feature":"92","num_nodes":"5","size_leaf_vector":"1"}},{"base_weights":[-0E0,-1.2589245E-2,1.151206E-1,2.3105096E-2,-0E0],"categories":[],"categories_nodes":[],"categories_segments":[],"categories_sizes":[],"default_left":[0,0,0,0,0],"id":27,"left_children":[1,-1,3,-1,-1],"loss_changes":[1.7035805E1,0E0,1.0872881E1,0E0,0E0],"parents":[2147483647,0,0,2,2],"right_children":[2,-1,4,-1,-1],"split_conditions":[1.3333334E0,-1.2589245E-2,2.0533333E2,2.3105096E-2,-0E0],"split_indices":[5,0,19,0,0],"split_type":[0,0,0,0,0],"sum_hessian":[5.1733167E2,2.24307E2,2.930247E2,1.8663412E2,1.0639055E2],"tree_param":{"num_deleted":"0","num_feature":"92","num_nodes":"5","size_leaf_vector":"1"}},{"base_weights":[-0E0,-1.1756666E-1,1.0857887E-1,-0E0,-2.6416391E-2,-0E0,2.5456527E-2],"categories":[],"categories_nodes":[],"categories_segments":[],"categories_sizes":[],"default_left":[0,0,0,0,0,0,0],"id":28,"left_children":[1,3,5,-1,-1,-1,-1],"loss_changes":[1.48000145E1,1.1219093E1,1.0180041E1,0E0,0E0,0E0,0E0],"parents":[2147483647,0,0,1,1,2,2],"right_children":[2,4,6,-1,-1,-1,-1],"split_conditions":[1.5821429E-1,3.343254E-1,3.6565655E-1,-0E0,-2.6416391E-2,-0E0,2.5456527E-2],"split_indices":[14,57,36,0,0,0,0],"split_type":[0,0,0,0,0,0,0],"sum_hessian":[5.188901E2,2.5920786E2,2.596822E2,1.3294763E2,1.2626023E2,1.4539226E2,1.14289925E2],"tree_param":{"num_deleted":"0","num_feature":"92","num_nodes":"7","size_leaf_vector":"1"}},{"base_weights":[-0E0,1.1440153E-2,-1.1101183E-1,-0E0,-2.8400203E-2],"categories":[],"categories_nodes":[],"categories_segments":[],"categories_sizes":[],"default_left":[0,0,0,0,0],"id":29,"left_children":[1,-1,3,-1,-1],"loss_changes":[1.5350302E1,0E0,9.276817E0,0E0,0E0],"parents":[2147483647,0,0,2,2],"right_children":[2,-1,4,-1,-1],"split_conditions":[1.3333334E0,1.1440153E-2,1.55E2,-0E0,-2.8400203E-2],"split_indices":[9,0,1,0,0],"split_type":[0,0,0,0,0],"sum_hessian":[5.122211E2,2.1988078E2,2.9234033E2,2.1765263E2,7.46877E1],"tree_param":{"num_deleted":"0","num_feature":"92","num_nodes":"5","size_leaf_vector":"1"}},{"base_weights":[-0E0,1.624321E-2,-9.859919E-2,-2.454069E-2,-0E0],"categories":[],"categories_nodes":[],"categories_segments":[],"categories_sizes":[],"default_left":[0,0,0,0,0],"id":30,"left_children":[1,-1,3,-1,-1],"loss_changes":[1.9080765E1,0E0,9.529143E0,0E0,0E0],"parents":[2147483647,0,0,2,2],"right_children":[2,-1,4,-1,-1],"split_conditions":[-1E0,1.624321E-2,-1.5052308E-1,-2.454069E-2,-0E0],"split_indices":[4,0,66,0,0],"split_type":[0,0,0,0,0],"sum_hessian":[5.1624286E2,1.9840129E2,3.1784155E2,1.1213039E2,2.0571118E2],"tree_param":{"num_deleted":"0","num_feature":"92","num_nodes":"5","size_leaf_vector":"1"}},{"base_weights":[-0E0,9.4172E-3,-1.2415341E-2],"categories":[],"categories_nodes":[],"categories_segments":[],"categories_sizes":[],"default_left":[0,0,0],"id":31,"left_children":[1,-1,-1],"loss_changes":[1.5224308E1,0E0,0E0],"parents":[2147483647,0,0],"right_children":[2,-1,-1],"split_conditions":[2E0,9.4172E-3,-1.2415341E-2],"split_indices":[4,0,0],"split_type":[0,0,0],"sum_hessian":[5.162678E2,3.168501E2,1.994177E2],"tree_param":{"num_deleted":"0","num_feature":"92","num_nodes":"3","size_leaf_vector":"1"}},{"base_weights":[-0E0,1.6753638E-2,-7.6825395E-2,6.016583E-3,-1.52757E-2],"categories":[],"categories_nodes":[],"categories_segments":[],"categories_sizes":[],"default_left":[0,0,0,0,0],"id":32,"left_children":[1,-1,3,-1,-1],"loss_changes":[1.5124567E1,0E0,1.093885E1,0E0,0E0],"parents":[2147483647,0,0,2,2],"right_children":[2,-1,4,-1,-1],"split_conditions":[-1.4E2,1.6753638E-2,-1.85E2,6.016583E-3,-1.52757E-2],"split_indices":[8,0,1,0,0],"split_type":[0,0,0,0,0],"sum_hessian":[5.1076212E2,1.03343895E2,4.074182E2,8.1422104E1,3.2599612E2],"tree_param":{"num_deleted":"0","num_feature":"92","num_nodes":"5","size_leaf_vector":"1"}},{"base_weights":[-0E0,2.2062724E-2,-3.253529E-2,3.5040157E-3,-1.3321491E-2],"categories":[],"categories_nodes":[],"categories_segments":[],"categories_sizes":[],"default_left":[0,0,0,0,0],"id":33,"left_children":[1,-1,3,-1,-1],"loss_changes":[1.3131588E1,0E0,1.0139865E1,0E0,0E0],"parents":[2147483647,0,0,2,2],"right_children":[2,-1,4,-1,-1],"split_conditions":[-2.8E2,2.2062724E-2,1E0,3.5040157E-3,-1.3321491E-2],"split_indices":[1,0,9,0,0],"split_type":[0,0,0,0,0],"sum_hessian":[5.1282983E2,4.5246758E1,4.6758307E2,1.967633E2,2.7081976E2],"tree_param":{"num_deleted":"0","num_feature":"92","num_nodes":"5","size_leaf_vector":"1"}},{"base_weights":[-0E0,-2.1369329E-2,5.5869043E-2,-0E0,1.791699E-2],"categories":[],"categories_nodes":[],"categories_segments":[],"categories_sizes":[],"default_left":[0,0,0,0,0],"id":34,"left_children":[1,-1,3,-1,-1],"loss_changes":[1.4296367E1,0E0,9.164301E0,0E0,0E0],"parents":[2147483647,0,0,2,2],"right_children":[2,-1,4,-1,-1],"split_conditions":[-2.85E2,-2.1369329E-2,2.1E2,-0E0,1.791699E-2],"split_indices":[2,0,44,0,0],"split_type":[0,0,0,0,0],"sum_hessian":[5.092999E2,4.206439E1,4.672355E2,2.9398492E2,1.732506E2],"tree_param":{"num_deleted":"0","num_feature":"92","num_nodes":"5","size_leaf_vector":"1"}},{"base_weights":[-0E0,-2.4780557E-2,3.1389575E-2,-4.749453E-3,1.6320772E-1,2.7684927E-2,-0E0],"categories":[],"categories_nodes":[],"categories_segments":[],"categories_sizes":[],"default_left":[0,0,0,0,0,0,0],"id":35,"left_children":[1,-1,3,-1,5,-1,-1],"loss_changes":[1.4746131E1,0E0,1.3027075E1,0E0,8.480337E0,0E0,0E0],"parents":[2147483647,0,0,2,2,4,4],"right_children":[2,-1,4,-1,6,-1,-1],"split_conditions":[-2.85E2,-2.4780557E-2,1.2747369E1,-4.749453E-3,1.9695257E1,2.7684927E-2,-0E0],"split_indices":[2,0,46,0,46,0,0],"split_type":[0,0,0,0,0,0,0],"sum_hessian":[5.0985922E2,4.248239E1,4.6737683E2,2.1324472E2,2.5413211E2,1.4227815E2,1.1185396E2],"tree_param":{"num_deleted":"0","num_feature":"92","num_nodes":"7","size_leaf_vector":"1"}},{"base_weights":[-0E0,-2.0381398E-2,3.2006692E-2,1.9539244E-2,-0E0,-7.5122245E-2,1.0428975E-2,-0E0,-1.9950764E-2],"categories":[],"categories_nodes":[],"categories_segments":[],"categories_sizes":[],"default_left":[0,0,0,0,0,0,0,0,0],"id":36,"left_children":[1,-1,3,-1,5,7,-1,-1,-1],"loss_changes":[1.1876986E1,0E0,1.0627402E1,0E0,9.244146E0,8.109097E0,0E0,0E0,0E0],"parents":[2147483647,0,0,2,2,4,4,5,5],"right_children":[2,-1,4,-1,6,8,-1,-1,-1],"split_conditions":[-2.85E2,-2.0381398E-2,2.1333334E1,1.9539244E-2,2.7666666E1,3.559206E0,1.0428975E-2,-0E0,-1.9950764E-2],"split_indices":[2,0,82,0,10,48,0,0,0],"split_type":[0,0,0,0,0,0,0,0,0],"sum_hessian":[5.0973544E2,4.3056614E1,4.6667883E2,1.1190898E2,3.5476984E2,2.750524E2,7.971744E1,1.5312303E2,1.21929375E2],"tree_param":{"num_deleted":"0","num_feature":"92","num_nodes":"9","size_leaf_vector":"1"}},{"base_weights":[-0E0,9.667352E-3,-7.056558E-2,3.3876263E-3,-1.5500373E-2],"categories":[],"categories_nodes":[],"categories_segments":[],"categories_sizes":[],"default_left":[0,0,0,0,0],"id":37,"left_children":[1,-1,3,-1,-1],"loss_changes":[9.999384E0,0E0,8.722246E0,0E0,0E0],"parents":[2147483647,0,0,2,2],"right_children":[2,-1,4,-1,-1],"split_conditions":[1.3333334E0,9.667352E-3,-1.484127E-1,3.3876263E-3,-1.5500373E-2],"split_indices":[9,0,16,0,0],"split_type":[0,0,0,0,0],"sum_hessian":[5.053211E2,2.1893239E2,2.8638873E2,5.4841496E1,2.3154724E2],"tree_param":{"num_deleted":"0","num_feature":"92","num_nodes":"5","size_leaf_vector":"1"}},{"base_weights":[-0E0,2.6994398E-2,-1.9311806E-2,1.5132428E-2,-1.773093E-2,-1.4278245E-2,2.2605602E-3],"categories":[],"categories_nodes":[],"categories_segments":[],"categories_sizes":[],"default_left":[1,0,0,0,0,0,0],"id":38,"left_children":[1,3,-1,-1,5,-1,-1],"loss_changes":[1.169683E1,1.0078576E1,0E0,0E0,8.930613E0,0E0,0E0],"parents":[2147483647,0,0,1,1,4,4],"right_children":[2,4,-1,-1,6,-1,-1],"split_conditions":[9.3333336E1,1.3333334E0,-1.9311806E-2,1.5132428E-2,4.803103E0,-1.4278245E-2,2.2605602E-3],"split_indices":[61,52,0,0,79,0,0],"split_type":[0,0,0,0,0,0,0],"sum_hessian":[5.0411505E2,4.4167987E2,6.243517E1,1.9531097E2,2.4636891E2,1.4567796E2,1.0069094E2],"tree_param":{"num_deleted":"0","num_feature":"92","num_nodes":"7","size_leaf_vector":"1"}},{"base_weights":[-0E0,3.7236188E-3,-1.8366527E-2],"categories":[],"categories_nodes":[],"categories_segments":[],"categories_sizes":[],"default_left":[0,0,0],"id":39,"left_children":[1,-1,-1],"loss_changes":[1.2334351E1,0E0,0E0],"parents":[2147483647,0,0],"right_children":[2,-1,-1],"split_conditions":[4.05E2,3.7236188E-3,-1.8366527E-2],"split_indices":[0,0,0],"split_type":[0,0,0],"sum_hessian":[4.989547E2,4.2381165E2,7.514304E1],"tree_param":{"num_deleted":"0","num_feature":"92","num_nodes":"3","size_leaf_vector":"1"}},{"base_weights":[-0E0,8.742101E-2,-9.8365415E-3,2.2185005E-2,-0E0],"categories":[],"categories_nodes":[],"categories_segments":[],"categories_sizes":[],"default_left":[0,0,0,0,0],"id":40,"left_children":[1,3,-1,-1,-1],"loss_changes":[1.1496458E1,8.6103735E0,0E0,0E0,0E0],"parents":[2147483647,0,0,1,1],"right_children":[2,4,-1,-1,-1],"split_conditions":[2E0,-1.3055556E-1,-9.8365415E-3,2.2185005E-2,-0E0],"split_indices":[4,18,0,0,0],"split_type":[0,0,0,0,0],"sum_hessian":[5.114014E2,3.1616562E2,1.9523576E2,1.1703956E2,1.9912607E2],"tree_param":{"num_deleted":"0","num_feature":"92","num_nodes":"5","size_leaf_vector":"1"}},{"base_weights":[-0E0,-1.7887164E-2,4.127773E-2,-2.302951E-3,1.6467081E-1,-0E0,2.743809E-2],"categories":[],"categories_nodes":[],"categories_segments":[],"categories_sizes":[],"default_left":[0,0,0,0,0,0,0],"id":41,"left_children":[1,-1,3,-1,5,-1,-1],"loss_changes":[1.2878304E1,0E0,1.031313E1,0E0,9.824202E0,0E0,0E0],"parents":[2147483647,0,0,2,2,4,4],"right_children":[2,-1,4,-1,6,-1,-1],"split_conditions":[-1.475E2,-1.7887164E-2,3.3333334E-1,-2.302951E-3,-4.658818E1,-0E0,2.743809E-2],"split_indices":[17,0,55,0,14,0,0],"split_type":[0,0,0,0,0,0,0],"sum_hessian":[5.0879437E2,9.764094E1,4.1115344E2,1.8512584E2,2.260276E2,7.0765564E1,1.5526204E2],"tree_param":{"num_deleted":"0","num_feature":"92","num_nodes":"7","size_leaf_vector":"1"}},{"base_weights":[-0E0,7.515113E-3,-9.983011E-3],"categories":[],"categories_nodes":[],"categories_segments":[],"categories_sizes":[],"default_left":[0,0,0],"id":42,"left_children":[1,-1,-1],"loss_changes":[1.0924461E1,0E0,0E0],"parents":[2147483647,0,0],"right_children":[2,-1,-1],"split_conditions":[2.0533333E2,7.515113E-3,-9.983011E-3],"split_indices":[19,0,0],"split_type":[0,0,0],"sum_hessian":[5.0049524E2,3.069276E2,1.9356764E2],"tree_param":{"num_deleted":"0","num_feature":"92","num_nodes":"3","size_leaf_vector":"1"}},{"base_weights":[-0E0,2.1048855E-2,-2.6545059E-2,-1.1040616E-2,7.168021E-3],"categories":[],"categories_nodes":[],"categories_segments":[],"categories_sizes":[],"default_left":[0,0,0,0,0],"id":43,"left_children":[1,-1,3,-1,-1],"loss_changes":[1.1875173E1,0E0,1.0735219E1,0E0,0E0],"parents":[2147483647,0,0,2,2],"right_children":[2,-1,4,-1,-1],"split_conditions":[-2.85E2,2.1048855E-2,4.803103E0,-1.1040616E-2,7.168021E-3],"split_indices":[1,0,79,0,0],"split_type":[0,0,0,0,0],"sum_hessian":[5.0517233E2,4.131028E1,4.6386206E2,3.3250018E2,1.3136188E2],"tree_param":{"num_deleted":"0","num_feature":"92","num_nodes":"5","size_leaf_vector":"1"}},{"base_weights":[-0E0,5.2523173E-2,-1.2834314E-1,1.9383397E-2,-0E0,-2.5472952E-2,-0E0],"categories":[],"categories_nodes":[],"categories_segments":[],"categories_sizes":[],"default_left":[0,0,0,0,0,0,0],"id":44,"left_children":[1,3,5,-1,-1,-1,-1],"loss_changes":[1.0516696E1,8.1450405E0,9.611658E0,0E0,0E0,0E0,0E0],"parents":[2147483647,0,0,1,1,2,2],"right_children":[2,4,6,-1,-1,-1,-1],"split_conditions":[1.15E2,2.6566416E-1,2.0533333E2,1.9383397E-2,-0E0,-2.5472952E-2,-0E0],"split_indices":[1,90,44,0,0,0,0],"split_type":[0,0,0,0,0,0,0],"sum_hessian":[5.112672E2,3.214918E2,1.8977542E2,9.235732E1,2.2913446E2,1.21891426E2,6.7883995E1],"tree_param":{"num_deleted":"0","num_feature":"92","num_nodes":"7","size_leaf_vector":"1"}},{"base_weights":[-0E0,-1.0906988E-2,3.9688203E-2,-4.356709E-4,1.6170809E-2],"categories":[],"categories_nodes":[],"categories_segments":[],"categories_sizes":[],"default_left":[0,0,0,0,0],"id":45,"left_children":[1,-1,3,-1,-1],"loss_changes":[8.14271E0,0E0,9.215797E0,0E0,0E0],"parents":[2147483647,0,0,2,2],"right_children":[2,-1,4,-1,-1],"split_conditions":[1.8240741E-1,-1.0906988E-2,7.1337743E0,-4.356709E-4,1.6170809E-2],"split_indices":[36,0,14,0,0],"split_type":[0,0,0,0,0],"sum_hessian":[5.0551413E2,1.4350293E2,3.620112E2,1.8632352E2,1.756877E2],"tree_param":{"num_deleted":"0","num_feature":"92","num_nodes":"5","size_leaf_vector":"1"}},{"base_weights":[-0E0,1.2523677E-2,-5.4893933E-2,-1.6618455E-2,2.840544E-3],"categories":[],"categories_nodes":[],"categories_segments":[],"categories_sizes":[],"default_left":[0,0,0,0,0],"id":46,"left_children":[1,-1,3,-1,-1],"loss_changes":[1.0103366E1,0E0,1.1246243E1,0E0,0E0],"parents":[2147483647,0,0,2,2],"right_children":[2,-1,4,-1,-1],"split_conditions":[1.4215687E-1,1.2523677E-2,2.0533333E2,-1.6618455E-2,2.840544E-3],"split_indices":[57,0,44,0,0],"split_type":[0,0,0,0,0],"sum_hessian":[5.094055E2,1.16737404E2,3.926681E2,2.3623181E2,1.5643626E2],"tree_param":{"num_deleted":"0","num_feature":"92","num_nodes":"5","size_leaf_vector":"1"}},{"base_weights":[-0E0,-1.2504758E-1,3.700634E-2,-0E0,-3.0175833E-2,-4.9614944E-3,1.2473336E-2],"categories":[],"categories_nodes":[],"categories_segments":[],"categories_sizes":[],"default_left":[0,0,0,0,0,0,0],"id":47,"left_children":[1,3,5,-1,-1,-1,-1],"loss_changes":[8.543614E0,1.2024629E1,9.30564E0,0E0,0E0,0E0,0E0],"parents":[2147483647,0,0,1,1,2,2],"right_children":[2,4,6,-1,-1,-1,-1],"split_conditions":[2.3333333E0,1.3333334E0,-1.1666667E-1,-0E0,-3.0175833E-2,-4.9614944E-3,1.2473336E-2],"split_indices":[81,52,54,0,0,0,0],"split_type":[0,0,0,0,0,0,0],"sum_hessian":[5.054313E2,1.4210612E2,3.633252E2,6.3473797E1,7.863233E1,9.9641754E1,2.6368344E2],"tree_param":{"num_deleted":"0","num_feature":"92","num_nodes":"7","size_leaf_vector":"1"}},{"base_weights":[-0E0,1.2401469E-2,-4.9238488E-2,1.3334014E-3,-1.5928261E-2],"categories":[],"categories_nodes":[],"categories_segments":[],"categories_sizes":[],"default_left":[0,0,0,0,0],"id":48,"left_children":[1,-1,3,-1,-1],"loss_changes":[9.244907E0,0E0,9.814016E0,0E0,0E0],"parents":[2147483647,0,0,2,2],"right_children":[2,-1,4,-1,-1],"split_conditions":[-1.4833333E2,1.2401469E-2,3.3333334E-1,1.3334014E-3,-1.5928261E-2],"split_indices":[8,0,38,0,0],"split_type":[0,0,0,0,0],"sum_hessian":[5.0420987E2,9.573788E1,4.08472E2,1.842083E2,2.242637E2],"tree_param":{"num_deleted":"0","num_feature":"92","num_nodes":"5","size_leaf_vector":"1"}},{"base_weights":[-0E0,4.609883E-2,-1.5009656E-2,1.5584561E-1,-3.0200374E-3,-0E0,2.5989253E-2],"categories":[],"categories_nodes":[],"categories_segments":[],"categories_sizes":[],"default_left":[1,0,0,0,0,0,0],"id":49,"left_children":[1,3,-1,5,-1,-1,-1],"loss_changes":[1.0071962E1,1.021612E1,0E0,1.0601941E1,0E0,0E0,0E0],"parents":[2147483647,0,0,1,1,3,3],"right_children":[2,4,-1,6,-1,-1,-1],"split_conditions":[9.3333336E1,2.03E2,-1.5009656E-2,3.7333332E1,-3.0200374E-3,-0E0,2.5989253E-2],"split_indices":[61,19,0,87,0,0,0],"split_type":[0,0,0,0,0,0,0],"sum_hessian":[5.0286258E2,4.4107916E2,6.1783432E1,2.6891226E2,1.721669E2,7.845649E1,1.9045578E2],"tree_param":{"num_deleted":"0","num_feature":"92","num_nodes":"7","size_leaf_vector":"1"}},{"base_weights":[-0E0,4.6807304E-3,-1.4153913E-2],"categories":[],"categories_nodes":[],"categories_segments":[],"categories_sizes":[],"default_left":[1,0,0],"id":50,"left_children":[1,-1,-1],"loss_changes":[9.854969E0,0E0,0E0],"parents":[2147483647,0,0],"right_children":[2,-1,-1],"split_conditions":[9.3333336E1,4.6807304E-3,-1.4153913E-2],"split_indices":[61,0,0],"split_type":[0,0,0],"sum_hessian":[5.0315585E2,4.4143857E2,6.171728E1],"tree_param":{"num_deleted":"0","num_feature":"92","num_nodes":"3","size_leaf_vector":"1"}},{"base_weights":[-0E0,1.3731125E-2,-3.284504E-3],"categories":[],"categories_nodes":[],"categories_segments":[],"categories_sizes":[],"default_left":[1,0,0],"id":51,"left_children":[1,-1,-1],"loss_changes":[8.981105E0,0E0,0E0],"parents":[2147483647,0,0],"right_children":[2,-1,-1],"split_conditions":[-2.5E2,1.3731125E-2,-3.284504E-3],"split_indices":[61,0,0],"split_type":[0,0,0],"sum_hessian":[5.081687E2,8.508964E1,4.2307907E2],"tree_param":{"num_deleted":"0","num_feature":"92","num_nodes":"3","size_leaf_vector":"1"}},{"base_weights":[-0E0,-1.1979531E-2,4.6846615E-3],"categories":[],"categories_nodes":[],"categories_segments":[],"categories_sizes":[],"default_left":[0,0,0],"id":52,"left_children":[1,-1,-1],"loss_changes":[9.01506E0,0E0,0E0],"parents":[2147483647,0,0],"right_children":[2,-1,-1],"split_conditions":[-1.5E2,-1.1979531E-2,4.6846615E-3],"split_indices":[17,0,0],"split_type":[0,0,0],"sum_hessian":[5.030467E2,9.4619385E1,4.084273E2],"tree_param":{"num_deleted":"0","num_feature":"92","num_nodes":"3","size_leaf_vector":"1"}},{"base_weights":[-0E0,-1.727765E-2,3.1143022E-3,-3.9071906E-3,9.750005E-3],"categories":[],"categories_nodes":[],"categories_segments":[],"categories_sizes":[],"default_left":[0,0,0,0,0],"id":53,"left_children":[1,-1,3,-1,-1],"loss_changes":[8.343781E0,0E0,8.196708E0,0E0,0E0],"parents":[2147483647,0,0,2,2],"right_children":[2,-1,4,-1,-1],"split_conditions":[-2.85E2,-1.727765E-2,1.2747369E1,-3.9071906E-3,9.750005E-3],"split_indices":[2,0,46,0,0],"split_type":[0,0,0,0,0],"sum_hessian":[5.0324585E2,3.935463E1,4.638912E2,2.1017023E2,2.5372098E2],"tree_param":{"num_deleted":"0","num_feature":"92","num_nodes":"5","size_leaf_vector":"1"}},{"base_weights":[-0E0,-9.12883E-3,5.2872486E-2,1.6699158E-2,-0E0],"categories":[],"categories_nodes":[],"categories_segments":[],"categories_sizes":[],"default_left":[0,0,0,0,0],"id":54,"left_children":[1,-1,3,-1,-1],"loss_changes":[8.300608E0,0E0,8.238354E0,0E0,0E0],"parents":[2147483647,0,0,2,2],"right_children":[2,-1,4,-1,-1],"split_conditions":[1.2747369E1,-9.12883E-3,2.03E2,1.6699158E-2,-0E0],"split_indices":[46,0,19,0,0],"split_type":[0,0,0,0,0],"sum_hessian":[4.9979034E2,2.2683446E2,2.7295587E2,1.6016508E2,1.1279079E2],"tree_param":{"num_deleted":"0","num_feature":"92","num_nodes":"5","size_leaf_vector":"1"}},{"base_weights":[-0E0],"categories":[],"categories_nodes":[],"categories_segments":[],"categories_sizes":[],"default_left":[0],"id":55,"left_children":[-1],"loss_changes":[0E0],"parents":[2147483647],"right_children":[-1],"split_conditions":[-0E0],"split_indices":[0],"split_type":[0],"sum_hessian":[5.0291382E2],"tree_param":{"num_deleted":"0","num_feature":"92","num_nodes":"1","size_leaf_vector":"1"}},{"base_weights":[-0E0,1.2779174E-2,-2.6117417E-3],"categories":[],"categories_nodes":[],"categories_segments":[],"categories_sizes":[],"default_left":[0,0,0],"id":56,"left_children":[1,-1,-1],"loss_changes":[8.208024E0,0E0,0E0],"parents":[2147483647,0,0],"right_children":[2,-1,-1],"split_conditions":[-1.4E2,1.2779174E-2,-2.6117417E-3],"split_indices":[8,0,0],"split_type":[0,0,0],"sum_hessian":[5.0136432E2,1.0294085E2,3.9842346E2],"tree_param":{"num_deleted":"0","num_feature":"92","num_nodes":"3","size_leaf_vector":"1"}},{"base_weights":[-0E0,-8.485628E-3,6.2723376E-2,-0E0,1.935218E-2],"categories":[],"categories_nodes":[],"categories_segments":[],"categories_sizes":[],"default_left":[0,0,0,0,0],"id":57,"left_children":[1,-1,3,-1,-1],"loss_changes":[8.346932E0,0E0,8.942291E0,0E0,0E0],"parents":[2147483647,0,0,2,2],"right_children":[2,-1,4,-1,-1],"split_conditions":[1.6297316E3,-8.485628E-3,2.5984848E0,-0E0,1.935218E-2],"split_indices":[56,0,88,0,0],"split_type":[0,0,0,0,0],"sum_hessian":[5.0097983E2,2.1005226E2,2.9092755E2,1.6082234E2,1.3010521E2],"tree_param":{"num_deleted":"0","num_feature":"92","num_nodes":"5","size_leaf_vector":"1"}},{"base_weights":[-0E0],"categories":[],"categories_nodes":[],"categories_segments":[],"categories_sizes":[],"default_left":[0],"id":58,"left_children":[-1],"loss_changes":[0E0],"parents":[2147483647],"right_children":[-1],"split_conditions":[-0E0],"split_indices":[0],"split_type":[0],"sum_hessian":[5.0221286E2],"tree_param":{"num_deleted":"0","num_feature":"92","num_nodes":"1","size_leaf_vector":"1"}},{"base_weights":[-0E0,-7.766692E-4,1.680633E-2],"categories":[],"categories_nodes":[],"categories_segments":[],"categories_sizes":[],"default_left":[1,0,0],"id":59,"left_children":[1,-1,-1],"loss_changes":[8.982268E0,0E0,0E0],"parents":[2147483647,0,0],"right_children":[2,-1,-1],"split_conditions":[9.3333336E1,-7.766692E-4,1.680633E-2],"split_indices":[39,0,0],"split_type":[0,0,0],"sum_hessian":[5.033096E2,4.4218777E2,6.1121822E1],"tree_param":{"num_deleted":"0","num_feature":"92","num_nodes":"3","size_leaf_vector":"1"}},{"base_weights":[-0E0,1.6157001E-2,-1.2649158E-2,-8.986084E-3,6.46062E-3],"categories":[],"categories_nodes":[],"categories_segments":[],"categories_sizes":[],"default_left":[0,0,0,0,0],"id":60,"left_children":[1,-1,3,-1,-1],"loss_changes":[8.13086E0,0E0,8.860863E0,0E0,0E0],"parents":[2147483647,0,0,2,2],"right_children":[2,-1,4,-1,-1],"split_conditions":[-2.85E2,1.6157001E-2,4.803103E0,-8.986084E-3,6.46062E-3],"split_indices":[1,0,79,0,0],"split_type":[0,0,0,0,0],"sum_hessian":[5.007719E2,4.0539097E1,4.6023282E2,3.300393E2,1.301935E2],"tree_param":{"num_deleted":"0","num_feature":"92","num_nodes":"5","size_leaf_vector":"1"}},{"base_weights":[-0E0,8.273173E-3,-7.024064E-3],"categories":[],"categories_nodes":[],"categories_segments":[],"categories_sizes":[],"default_left":[0,0,0],"id":61,"left_children":[1,-1,-1],"loss_changes":[9.132109E0,0E0,0E0],"parents":[2147483647,0,0],"right_children":[2,-1,-1],"split_conditions":[6.666667E-1,8.273173E-3,-7.024064E-3],"split_indices":[45,0,0],"split_type":[0,0,0],"sum_hessian":[4.9613608E2,2.189992E2,2.7713687E2],"tree_param":{"num_deleted":"0","num_feature":"92","num_nodes":"3","size_leaf_vector":"1"}},{"base_weights":[-0E0],"categories":[],"categories_nodes":[],"categories_segments":[],"categories_sizes":[],"default_left":[0],"id":62,"left_children":[-1],"loss_changes":[0E0],"parents":[2147483647],"right_children":[-1],"split_conditions":[-0E0],"split_indices":[0],"split_type":[0],"sum_hessian":[5.0552188E2],"tree_param":{"num_deleted":"0","num_feature":"92","num_nodes":"1","size_leaf_vector":"1"}},{"base_weights":[-0E0,1.2854913E-2,-4.20382E-2,-1.6437523E-2,-0E0],"categories":[],"categories_nodes":[],"categories_segments":[],"categories_sizes":[],"default_left":[0,0,0,0,0],"id":63,"left_children":[1,-1,3,-1,-1],"loss_changes":[9.551661E0,0E0,8.67276E0,0E0,0E0],"parents":[2147483647,0,0,2,2],"right_children":[2,-1,4,-1,-1],"split_conditions":[2.2E1,1.2854913E-2,1E0,-1.6437523E-2,-0E0],"split_indices":[82,0,7,0,0],"split_type":[0,0,0,0,0],"sum_hessian":[4.997182E2,1.26362724E2,3.733555E2,1.6107951E2,2.1227597E2],"tree_param":{"num_deleted":"0","num_feature":"92","num_nodes":"5","size_leaf_vector":"1"}},{"base_weights":[-0E0],"categories":[],"categories_nodes":[],"categories_segments":[],"categories_sizes":[],"default_left":[0],"id":64,"left_children":[-1],"loss_changes":[0E0],"parents":[2147483647],"right_children":[-1],"split_conditions":[-0E0],"split_indices":[0],"split_type":[0],"sum_hessian":[4.979442E2],"tree_param":{"num_deleted":"0","num_feature":"92","num_nodes":"1","size_leaf_vector":"1"}},{"base_weights":[-0E0],"categories":[],"categories_nodes":[],"categories_segments":[],"categories_sizes":[],"default_left":[0],"id":65,"left_children":[-1],"loss_changes":[0E0],"parents":[2147483647],"right_children":[-1],"split_conditions":[-0E0],"split_indices":[0],"split_type":[0],"sum_hessian":[5.0034225E2],"tree_param":{"num_deleted":"0","num_feature":"92","num_nodes":"1","size_leaf_vector":"1"}},{"base_weights":[-0E0],"categories":[],"categories_nodes":[],"categories_segments":[],"categories_sizes":[],"default_left":[0],"id":66,"left_children":[-1],"loss_changes":[0E0],"parents":[2147483647],"right_children":[-1],"split_conditions":[-0E0],"split_indices":[0],"split_type":[0],"sum_hessian":[5.0083832E2],"tree_param":{"num_deleted":"0","num_feature":"92","num_nodes":"1","size_leaf_vector":"1"}},{"base_weights":[-0E0,8.743342E-3,-6.138335E-2,-0E0,-2.2480378E-2],"categories":[],"categories_nodes":[],"categories_segments":[],"categories_sizes":[],"default_left":[0,0,0,0,0],"id":67,"left_children":[1,-1,3,-1,-1],"loss_changes":[8.569851E0,0E0,1.0720509E1,0E0,0E0],"parents":[2147483647,0,0,2,2],"right_children":[2,-1,4,-1,-1],"split_conditions":[1.2746565E1,8.743342E-3,3.3333334E-1,-0E0,-2.2480378E-2],"split_indices":[63,0,65,0,0],"split_type":[0,0,0,0,0],"sum_hessian":[5.0199664E2,2.3121655E2,2.707801E2,1.708769E2,9.990317E1],"tree_param":{"num_deleted":"0","num_feature":"92","num_nodes":"5","size_leaf_vector":"1"}},{"base_weights":[-0E0],"categories":[],"categories_nodes":[],"categories_segments":[],"categories_sizes":[],"default_left":[0],"id":68,"left_children":[-1],"loss_changes":[0E0],"parents":[2147483647],"right_children":[-1],"split_conditions":[-0E0],"split_indices":[0],"split_type":[0],"sum_hessian":[5.0174542E2],"tree_param":{"num_deleted":"0","num_feature":"92","num_nodes":"1","size_leaf_vector":"1"}},{"base_weights":[-0E0],"categories":[],"categories_nodes":[],"categories_segments":[],"categories_sizes":[],"default_left":[0],"id":69,"left_children":[-1],"loss_changes":[0E0],"parents":[2147483647],"right_children":[-1],"split_conditions":[-0E0],"split_indices":[0],"split_type":[0],"sum_hessian":[4.983528E2],"tree_param":{"num_deleted":"0","num_feature":"92","num_nodes":"1","size_leaf_vector":"1"}},{"base_weights":[-0E0,-4.3421746E-3,1.083689E-2],"categories":[],"categories_nodes":[],"categories_segments":[],"categories_sizes":[],"default_left":[0,0,0],"id":70,"left_children":[1,-1,-1],"loss_changes":[9.137678E0,0E0,0E0],"parents":[2147483647,0,0],"right_children":[2,-1,-1],"split_conditions":[2.0533333E2,-4.3421746E-3,1.083689E-2],"split_indices":[44,0,0],"split_type":[0,0,0],"sum_hessian":[5.0242303E2,3.0628146E2,1.9614157E2],"tree_param":{"num_deleted":"0","num_feature":"92","num_nodes":"3","size_leaf_vector":"1"}},{"base_weights":[-0E0,-1.0827442E-2,4.6184496E-3],"categories":[],"categories_nodes":[],"categories_segments":[],"categories_sizes":[],"default_left":[0,0,0],"id":71,"left_children":[1,-1,-1],"loss_changes":[9.249499E0,0E0,0E0],"parents":[2147483647,0,0],"right_children":[2,-1,-1],"split_conditions":[3.6744366E0,-1.0827442E-2,4.6184496E-3],"split_indices":[53,0,0],"split_type":[0,0,0],"sum_hessian":[4.9862958E2,1.9037001E2,3.0825955E2],"tree_param":{"num_deleted":"0","num_feature":"92","num_nodes":"3","size_leaf_vector":"1"}},{"base_weights":[-0E0,1.050969E-2,-3.9846348E-3],"categories":[],"categories_nodes":[],"categories_segments":[],"categories_sizes":[],"default_left":[0,0,0],"id":72,"left_children":[1,-1,-1],"loss_changes":[8.617134E0,0E0,0E0],"parents":[2147483647,0,0],"right_children":[2,-1,-1],"split_conditions":[1.6215276E3,1.050969E-2,-3.9846348E-3],"split_indices":[37,0,0],"split_type":[0,0,0],"sum_hessian":[4.993461E2,1.9768753E2,3.0165857E2],"tree_param":{"num_deleted":"0","num_feature":"92","num_nodes":"3","size_leaf_vector":"1"}},{"base_weights":[-0E0],"categories":[],"categories_nodes":[],"categories_segments":[],"categories_sizes":[],"default_left":[0],"id":73,"left_children":[-1],"loss_changes":[0E0],"parents":[2147483647],"right_children":[-1],"split_conditions":[-0E0],"split_indices":[0],"split_type":[0],"sum_hessian":[5.0153125E2],"tree_param":{"num_deleted":"0","num_feature":"92","num_nodes":"1","size_leaf_vector":"1"}},{"base_weights":[-0E0,-8.0860695E-3,7.0397914E-3],"categories":[],"categories_nodes":[],"categories_segments":[],"categories_sizes":[],"default_left":[0,0,0],"id":74,"left_children":[1,-1,-1],"loss_changes":[9.181255E0,0E0,0E0],"parents":[2147483647,0,0],"right_children":[2,-1,-1],"split_conditions":[3.3333334E-1,-8.0860695E-3,7.0397914E-3],"split_indices":[22,0,0],"split_type":[0,0,0],"sum_hessian":[4.9933246E2,3.1190875E2,1.8742369E2],"tree_param":{"num_deleted":"0","num_feature":"92","num_nodes":"3","size_leaf_vector":"1"}},{"base_weights":[-0E0],"categories":[],"categories_nodes":[],"categories_segments":[],"categories_sizes":[],"default_left":[0],"id":75,"left_children":[-1],"loss_changes":[0E0],"parents":[2147483647],"right_children":[-1],"split_conditions":[-0E0],"split_indices":[0],"split_type":[0],"sum_hessian":[4.9546555E2],"tree_param":{"num_deleted":"0","num_feature":"92","num_nodes":"1","size_leaf_vector":"1"}},{"base_weights":[-0E0,1.2120128E-2,-4.6352625E-2,-1.6350491E-2,-0E0,-7.3087728E-3,9.837742E-2,2.289295E-2,-0E0],"categories":[],"categories_nodes":[],"categories_segments":[],"categories_sizes":[],"default_left":[0,0,0,0,0,0,0,0,0],"id":76,"left_children":[1,-1,3,-1,5,-1,7,-1,-1],"loss_changes":[8.898354E0,0E0,7.9303913E0,0E0,8.40761E0,0E0,9.223456E0,0E0,0E0],"parents":[2147483647,0,0,2,2,4,4,6,6],"right_children":[2,-1,4,-1,6,-1,8,-1,-1],"split_conditions":[-1.904762E-1,1.2120128E-2,1.621698E3,-1.6350491E-2,2.3333333E-1,-7.3087728E-3,5.3853526E0,2.289295E-2,-0E0],"split_indices":[16,0,56,0,36,0,48,0,0],"split_type":[0,0,0,0,0,0,0,0,0],"sum_hessian":[5.0016284E2,1.0046502E2,3.996978E2,1.5374086E2,2.4595695E2,7.9923E1,1.6603395E2,1.1128721E2,5.474675E1],"tree_param":{"num_deleted":"0","num_feature":"92","num_nodes":"9","size_leaf_vector":"1"}},{"base_weights":[-0E0,1.5655892E-2,-2.298951E-3],"categories":[],"categories_nodes":[],"categories_segments":[],"categories_sizes":[],"default_left":[0,0,0],"id":77,"left_children":[1,-1,-1],"loss_changes":[8.241695E0,0E0,0E0],"parents":[2147483647,0,0],"right_children":[2,-1,-1],"split_conditions":[-5.4E2,1.5655892E-2,-2.298951E-3],"split_indices":[0,0,0],"split_type":[0,0,0],"sum_hessian":[5.0228857E2,3.2256798E1,4.700318E2],"tree_param":{"num_deleted":"0","num_feature":"92","num_nodes":"3","size_leaf_vector":"1"}},{"base_weights":[-0E0,-3.6599746E-3,1.0161465E-2],"categories":[],"categories_nodes":[],"categories_segments":[],"categories_sizes":[],"default_left":[0,0,0],"id":78,"left_children":[1,-1,-1],"loss_changes":[8.005514E0,0E0,0E0],"parents":[2147483647,0,0],"right_children":[2,-1,-1],"split_conditions":[3.3333334E-1,-3.6599746E-3,1.0161465E-2],"split_indices":[22,0,0],"split_type":[0,0,0],"sum_hessian":[4.9780182E2,3.0931522E2,1.884866E2],"tree_param":{"num_deleted":"0","num_feature":"92","num_nodes":"3","size_leaf_vector":"1"}},{"base_weights":[-0E0],"categories":[],"categories_nodes":[],"categories_segments":[],"categories_sizes":[],"default_left":[0],"id":79,"left_children":[-1],"loss_changes":[0E0],"parents":[2147483647],"right_children":[-1],"split_conditions":[-0E0],"split_indices":[0],"split_type":[0],"sum_hessian":[5.0251086E2],"tree_param":{"num_deleted":"0","num_feature":"92","num_nodes":"1","size_leaf_vector":"1"}},{"base_weights":[-0E0],"categories":[],"categories_nodes":[],"categories_segments":[],"categories_sizes":[],"default_left":[0],"id":80,"left_children":[-1],"loss_changes":[0E0],"parents":[2147483647],"right_children":[-1],"split_conditions":[-0E0],"split_indices":[0],"split_type":[0],"sum_hessian":[4.9680157E2],"tree_param":{"num_deleted":"0","num_feature":"92","num_nodes":"1","size_leaf_vector":"1"}},{"base_weights":[-0E0],"categories":[],"categories_nodes":[],"categories_segments":[],"categories_sizes":[],"default_left":[0],"id":81,"left_children":[-1],"loss_changes":[0E0],"parents":[2147483647],"right_children":[-1],"split_conditions":[-0E0],"split_indices":[0],"split_type":[0],"sum_hessian":[4.9765955E2],"tree_param":{"num_deleted":"0","num_feature":"92","num_nodes":"1","size_leaf_vector":"1"}},{"base_weights":[-0E0],"categories":[],"categories_nodes":[],"categories_segments":[],"categories_sizes":[],"default_left":[0],"id":82,"left_children":[-1],"loss_changes":[0E0],"parents":[2147483647],"right_children":[-1],"split_conditions":[-0E0],"split_indices":[0],"split_type":[0],"sum_hessian":[4.9752493E2],"tree_param":{"num_deleted":"0","num_feature":"92","num_nodes":"1","size_leaf_vector":"1"}},{"base_weights":[-0E0],"categories":[],"categories_nodes":[],"categories_segments":[],"categories_sizes":[],"default_left":[0],"id":83,"left_children":[-1],"loss_changes":[0E0],"parents":[2147483647],"right_children":[-1],"split_conditions":[-0E0],"split_indices":[0],"split_type":[0],"sum_hessian":[5.0191522E2],"tree_param":{"num_deleted":"0","num_feature":"92","num_nodes":"1","size_leaf_vector":"1"}},{"base_weights":[-0E0],"categories":[],"categories_nodes":[],"categories_segments":[],"categories_sizes":[],"default_left":[0],"id":84,"left_children":[-1],"loss_changes":[0E0],"parents":[2147483647],"right_children":[-1],"split_conditions":[-0E0],"split_indices":[0],"split_type":[0],"sum_hessian":[5.0005637E2],"tree_param":{"num_deleted":"0","num_feature":"92","num_nodes":"1","size_leaf_vector":"1"}},{"base_weights":[-0E0],"categories":[],"categories_nodes":[],"categories_segments":[],"categories_sizes":[],"default_left":[0],"id":85,"left_children":[-1],"loss_changes":[0E0],"parents":[2147483647],"right_children":[-1],"split_conditions":[-0E0],"split_indices":[0],"split_type":[0],"sum_hessian":[5.0399182E2],"tree_param":{"num_deleted":"0","num_feature":"92","num_nodes":"1","size_leaf_vector":"1"}},{"base_weights":[-0E0],"categories":[],"categories_nodes":[],"categories_segments":[],"categories_sizes":[],"default_left":[0],"id":86,"left_children":[-1],"loss_changes":[0E0],"parents":[2147483647],"right_children":[-1],"split_conditions":[-0E0],"split_indices":[0],"split_type":[0],"sum_hessian":[5.0248795E2],"tree_param":{"num_deleted":"0","num_feature":"92","num_nodes":"1","size_leaf_vector":"1"}},{"base_weights":[-0E0],"categories":[],"categories_nodes":[],"categories_segments":[],"categories_sizes":[],"default_left":[0],"id":87,"left_children":[-1],"loss_changes":[0E0],"parents":[2147483647],"right_children":[-1],"split_conditions":[-0E0],"split_indices":[0],"split_type":[0],"sum_hessian":[4.9526294E2],"tree_param":{"num_deleted":"0","num_feature":"92","num_nodes":"1","size_leaf_vector":"1"}},{"base_weights":[-0E0,4.384462E-3,-9.622813E-3],"categories":[],"categories_nodes":[],"categories_segments":[],"categories_sizes":[],"default_left":[0,0,0],"id":88,"left_children":[1,-1,-1],"loss_changes":[8.031656E0,0E0,0E0],"parents":[2147483647,0,0],"right_children":[2,-1,-1],"split_conditions":[3.3333334E-1,4.384462E-3,-9.622813E-3],"split_indices":[65,0,0],"split_type":[0,0,0],"sum_hessian":[5.0082993E2,3.1434714E2,1.8648279E2],"tree_param":{"num_deleted":"0","num_feature":"92","num_nodes":"3","size_leaf_vector":"1"}},{"base_weights":[-0E0],"categories":[],"categories_nodes":[],"categories_segments":[],"categories_sizes":[],"default_left":[0],"id":89,"left_children":[-1],"loss_changes":[0E0],"parents":[2147483647],"right_children":[-1],"split_conditions":[-0E0],"split_indices":[0],"split_type":[0],"sum_hessian":[4.9431052E2],"tree_param":{"num_deleted":"0","num_feature":"92","num_nodes":"1","size_leaf_vector":"1"}},{"base_weights":[-0E0,-9.6710806E-4,1.7486094E-2],"categories":[],"categories_nodes":[],"categories_segments":[],"categories_sizes":[],"default_left":[1,0,0],"id":90,"left_children":[1,-1,-1],"loss_changes":[9.556712E0,0E0,0E0],"parents":[2147483647,0,0],"right_children":[2,-1,-1],"split_conditions":[9.3333336E1,-9.6710806E-4,1.7486094E-2],"split_indices":[39,0,0],"split_type":[0,0,0],"sum_hessian":[5.00524E2,4.3847418E2,6.204978E1],"tree_param":{"num_deleted":"0","num_feature":"92","num_nodes":"3","size_leaf_vector":"1"}},{"base_weights":[-0E0,-7.7043395E-3,6.594206E-3],"categories":[],"categories_nodes":[],"categories_segments":[],"categories_sizes":[],"default_left":[0,0,0],"id":91,"left_children":[1,-1,-1],"loss_changes":[8.3229E0,0E0,0E0],"parents":[2147483647,0,0],"right_children":[2,-1,-1],"split_conditions":[1.5004916E-1,-7.7043395E-3,6.594206E-3],"split_indices":[3,0,0],"split_type":[0,0,0],"sum_hessian":[5.022669E2,2.0207307E2,3.0019382E2],"tree_param":{"num_deleted":"0","num_feature":"92","num_nodes":"3","size_leaf_vector":"1"}},{"base_weights":[-0E0,1.2988084E-2,-3.369513E-2,-0E0,-1.626818E-2],"categories":[],"categories_nodes":[],"categories_segments":[],"categories_sizes":[],"default_left":[0,0,0,0,0],"id":92,"left_children":[1,-1,3,-1,-1],"loss_changes":[8.8698845E0,0E0,8.889725E0,0E0,0E0],"parents":[2147483647,0,0,2,2],"right_children":[2,-1,4,-1,-1],"split_conditions":[1.4215687E-1,1.2988084E-2,2.0533333E2,-0E0,-1.626818E-2],"split_indices":[57,0,19,0,0],"split_type":[0,0,0,0,0],"sum_hessian":[4.9942505E2,1.1242406E2,3.8700098E2,2.347438E2,1.5225717E2],"tree_param":{"num_deleted":"0","num_feature":"92","num_nodes":"5","size_leaf_vector":"1"}},{"base_weights":[-0E0],"categories":[],"categories_nodes":[],"categories_segments":[],"categories_sizes":[],"default_left":[0],"id":93,"left_children":[-1],"loss_changes":[0E0],"parents":[2147483647],"right_children":[-1],"split_conditions":[-0E0],"split_indices":[0],"split_type":[0],"sum_hessian":[5.0055197E2],"tree_param":{"num_deleted":"0","num_feature":"92","num_nodes":"1","size_leaf_vector":"1"}},{"base_weights":[-0E0],"categories":[],"categories_nodes":[],"categories_segments":[],"categories_sizes":[],"default_left":[0],"id":94,"left_children":[-1],"loss_changes":[0E0],"parents":[2147483647],"right_children":[-1],"split_conditions":[-0E0],"split_indices":[0],"split_type":[0],"sum_hessian":[4.9322147E2],"tree_param":{"num_deleted":"0","num_feature":"92","num_nodes":"1","size_leaf_vector":"1"}},{"base_weights":[-0E0],"categories":[],"categories_nodes":[],"categories_segments":[],"categories_sizes":[],"default_left":[0],"id":95,"left_children":[-1],"loss_changes":[0E0],"parents":[2147483647],"right_children":[-1],"split_conditions":[-0E0],"split_indices":[0],"split_type":[0],"sum_hessian":[5.011486E2],"tree_param":{"num_deleted":"0","num_feature":"92","num_nodes":"1","size_leaf_vector":"1"}},{"base_weights":[-0E0],"categories":[],"categories_nodes":[],"categories_segments":[],"categories_sizes":[],"default_left":[0],"id":96,"left_children":[-1],"loss_changes":[0E0],"parents":[2147483647],"right_children":[-1],"split_conditions":[-0E0],"split_indices":[0],"split_type":[0],"sum_hessian":[4.9670593E2],"tree_param":{"num_deleted":"0","num_feature":"92","num_nodes":"1","size_leaf_vector":"1"}},{"base_weights":[-0E0],"categories":[],"categories_nodes":[],"categories_segments":[],"categories_sizes":[],"default_left":[0],"id":97,"left_children":[-1],"loss_changes":[0E0],"parents":[2147483647],"right_children":[-1],"split_conditions":[-0E0],"split_indices":[0],"split_type":[0],"sum_hessian":[5.0265964E2],"tree_param":{"num_deleted":"0","num_feature":"92","num_nodes":"1","size_leaf_vector":"1"}},{"base_weights":[-0E0,1.1627395E-2,-5.856472E-2,1.1987278E-3,-1.6043298E-2],"categories":[],"categories_nodes":[],"categories_segments":[],"categories_sizes":[],"default_left":[0,0,0,0,0],"id":98,"left_children":[1,-1,3,-1,-1],"loss_changes":[9.47079E0,0E0,9.430994E0,0E0,0E0],"parents":[2147483647,0,0,2,2],"right_children":[2,-1,4,-1,-1],"split_conditions":[1.6666666E0,1.1627395E-2,6.666667E-1,1.1987278E-3,-1.6043298E-2],"split_indices":[35,0,25,0,0],"split_type":[0,0,0,0,0],"sum_hessian":[4.9482513E2,9.8538185E1,3.9628696E2,1.5851147E2,2.3777547E2],"tree_param":{"num_deleted":"0","num_feature":"92","num_nodes":"5","size_leaf_vector":"1"}},{"base_weights":[-0E0],"categories":[],"categories_nodes":[],"categories_segments":[],"categories_sizes":[],"default_left":[0],"id":99,"left_children":[-1],"loss_changes":[0E0],"parents":[2147483647],"right_children":[-1],"split_conditions":[-0E0],"split_indices":[0],"split_type":[0],"sum_hessian":[5.0187164E2],"tree_param":{"num_deleted":"0","num_feature":"92","num_nodes":"1","size_leaf_vector":"1"}},{"base_weights":[-0E0,-9.905598E-4,1.61817E-2],"categories":[],"categories_nodes":[],"categories_segments":[],"categories_sizes":[],"default_left":[1,0,0],"id":100,"left_children":[1,-1,-1],"loss_changes":[8.68725E0,0E0,0E0],"parents":[2147483647,0,0],"right_children":[2,-1,-1],"split_conditions":[9.3333336E1,-9.905598E-4,1.61817E-2],"split_indices":[39,0,0],"split_type":[0,0,0],"sum_hessian":[4.9810373E2,4.3639563E2,6.1708088E1],"tree_param":{"num_deleted":"0","num_feature":"92","num_nodes":"3","size_leaf_vector":"1"}},{"base_weights":[-0E0],"categories":[],"categories_nodes":[],"categories_segments":[],"categories_sizes":[],"default_left":[0],"id":101,"left_children":[-1],"loss_changes":[0E0],"parents":[2147483647],"right_children":[-1],"split_conditions":[-0E0],"split_indices":[0],"split_type":[0],"sum_hessian":[5.0202487E2],"tree_param":{"num_deleted":"0","num_feature":"92","num_nodes":"1","size_leaf_vector":"1"}},{"base_weights":[-0E0],"categories":[],"categories_nodes":[],"categories_segments":[],"categories_sizes":[],"default_left":[0],"id":102,"left_children":[-1],"loss_changes":[0E0],"parents":[2147483647],"right_children":[-1],"split_conditions":[-0E0],"split_indices":[0],"split_type":[0],"sum_hessian":[4.9228113E2],"tree_param":{"num_deleted":"0","num_feature":"92","num_nodes":"1","size_leaf_vector":"1"}},{"base_weights":[-0E0,5.1531404E-2,-1.0480908E-2,-2.3391654E-3,1.5178225E-2],"categories":[],"categories_nodes":[],"categories_segments":[],"categories_sizes":[],"default_left":[0,0,0,0,0],"id":103,"left_children":[1,3,-1,-1,-1],"loss_changes":[9.55978E0,8.593985E0,0E0,0E0,0E0],"parents":[2147483647,0,0,1,1],"right_children":[2,4,-1,-1,-1],"split_conditions":[1.8666667E2,3.2E1,-1.0480908E-2,-2.3391654E-3,1.5178225E-2],"split_indices":[19,87,0,0,0],"split_type":[0,0,0,0,0],"sum_hessian":[5.010119E2,2.634365E2,2.3757541E2,7.146834E1,1.9196815E2],"tree_param":{"num_deleted":"0","num_feature":"92","num_nodes":"5","size_leaf_vector":"1"}},{"base_weights":[-0E0,-1.3410651E-2,2.2105624E-3],"categories":[],"categories_nodes":[],"categories_segments":[],"categories_sizes":[],"default_left":[0,0,0],"id":104,"left_children":[1,-1,-1],"loss_changes":[8.343128E0,0E0,0E0],"parents":[2147483647,0,0],"right_children":[2,-1,-1],"split_conditions":[-1.4E2,-1.3410651E-2,2.2105624E-3],"split_indices":[17,0,0],"split_type":[0,0,0],"sum_hessian":[4.9792285E2,9.894863E1,3.9897424E2],"tree_param":{"num_deleted":"0","num_feature":"92","num_nodes":"3","size_leaf_vector":"1"}},{"base_weights":[-0E0],"categories":[],"categories_nodes":[],"categories_segments":[],"categories_sizes":[],"default_left":[0],"id":105,"left_children":[-1],"loss_changes":[0E0],"parents":[2147483647],"right_children":[-1],"split_conditions":[-0E0],"split_indices":[0],"split_type":[0],"sum_hessian":[4.9667377E2],"tree_param":{"num_deleted":"0","num_feature":"92","num_nodes":"1","size_leaf_vector":"1"}},{"base_weights":[-0E0],"categories":[],"categories_nodes":[],"categories_segments":[],"categories_sizes":[],"default_left":[0],"id":106,"left_children":[-1],"loss_changes":[0E0],"parents":[2147483647],"right_children":[-1],"split_conditions":[-0E0],"split_indices":[0],"split_type":[0],"sum_hessian":[4.9927853E2],"tree_param":{"num_deleted":"0","num_feature":"92","num_nodes":"1","size_leaf_vector":"1"}},{"base_weights":[-0E0],"categories":[],"categories_nodes":[],"categories_segments":[],"categories_sizes":[],"default_left":[0],"id":107,"left_children":[-1],"loss_changes":[0E0],"parents":[2147483647],"right_children":[-1],"split_conditions":[-0E0],"split_indices":[0],"split_type":[0],"sum_hessian":[5.002176E2],"tree_param":{"num_deleted":"0","num_feature":"92","num_nodes":"1","size_leaf_vector":"1"}},{"base_weights":[-0E0],"categories":[],"categories_nodes":[],"categories_segments":[],"categories_sizes":[],"default_left":[0],"id":108,"left_children":[-1],"loss_changes":[0E0],"parents":[2147483647],"right_children":[-1],"split_conditions":[-0E0],"split_indices":[0],"split_type":[0],"sum_hessian":[5.00369E2],"tree_param":{"num_deleted":"0","num_feature":"92","num_nodes":"1","size_leaf_vector":"1"}},{"base_weights":[-0E0],"categories":[],"categories_nodes":[],"categories_segments":[],"categories_sizes":[],"default_left":[0],"id":109,"left_children":[-1],"loss_changes":[0E0],"parents":[2147483647],"right_children":[-1],"split_conditions":[-0E0],"split_indices":[0],"split_type":[0],"sum_hessian":[4.961065E2],"tree_param":{"num_deleted":"0","num_feature":"92","num_nodes":"1","size_leaf_vector":"1"}},{"base_weights":[-0E0],"categories":[],"categories_nodes":[],"categories_segments":[],"categories_sizes":[],"default_left":[0],"id":110,"left_children":[-1],"loss_changes":[0E0],"parents":[2147483647],"right_children":[-1],"split_conditions":[-0E0],"split_indices":[0],"split_type":[0],"sum_hessian":[4.950691E2],"tree_param":{"num_deleted":"0","num_feature":"92","num_nodes":"1","size_leaf_vector":"1"}},{"base_weights":[-0E0],"categories":[],"categories_nodes":[],"categories_segments":[],"categories_sizes":[],"default_left":[0],"id":111,"left_children":[-1],"loss_changes":[0E0],"parents":[2147483647],"right_children":[-1],"split_conditions":[-0E0],"split_indices":[0],"split_type":[0],"sum_hessian":[5.0222806E2],"tree_param":{"num_deleted":"0","num_feature":"92","num_nodes":"1","size_leaf_vector":"1"}},{"base_weights":[-0E0],"categories":[],"categories_nodes":[],"categories_segments":[],"categories_sizes":[],"default_left":[0],"id":112,"left_children":[-1],"loss_changes":[0E0],"parents":[2147483647],"right_children":[-1],"split_conditions":[-0E0],"split_indices":[0],"split_type":[0],"sum_hessian":[4.9927313E2],"tree_param":{"num_deleted":"0","num_feature":"92","num_nodes":"1","size_leaf_vector":"1"}},{"base_weights":[-0E0],"categories":[],"categories_nodes":[],"categories_segments":[],"categories_sizes":[],"default_left":[0],"id":113,"left_children":[-1],"loss_changes":[0E0],"parents":[2147483647],"right_children":[-1],"split_conditions":[-0E0],"split_indices":[0],"split_type":[0],"sum_hessian":[4.969311E2],"tree_param":{"num_deleted":"0","num_feature":"92","num_nodes":"1","size_leaf_vector":"1"}},{"base_weights":[-2.7761834E-3],"categories":[],"categories_nodes":[],"categories_segments":[],"categories_sizes":[],"default_left":[0],"id":114,"left_children":[-1],"loss_changes":[0E0],"parents":[2147483647],"right_children":[-1],"split_conditions":[-2.5896195E-4],"split_indices":[0],"split_type":[0],"sum_hessian":[4.9927612E2],"tree_param":{"num_deleted":"0","num_feature":"92","num_nodes":"1","size_leaf_vector":"1"}},{"base_weights":[-0E0],"categories":[],"categories_nodes":[],"categories_segments":[],"categories_sizes":[],"default_left":[0],"id":115,"left_children":[-1],"loss_changes":[0E0],"parents":[2147483647],"right_children":[-1],"split_conditions":[-0E0],"split_indices":[0],"split_type":[0],"sum_hessian":[4.979887E2],"tree_param":{"num_deleted":"0","num_feature":"92","num_nodes":"1","size_leaf_vector":"1"}},{"base_weights":[-0E0],"categories":[],"categories_nodes":[],"categories_segments":[],"categories_sizes":[],"default_left":[0],"id":116,"left_children":[-1],"loss_changes":[0E0],"parents":[2147483647],"right_children":[-1],"split_conditions":[-0E0],"split_indices":[0],"split_type":[0],"sum_hessian":[4.949791E2],"tree_param":{"num_deleted":"0","num_feature":"92","num_nodes":"1","size_leaf_vector":"1"}},{"base_weights":[-0E0],"categories":[],"categories_nodes":[],"categories_segments":[],"categories_sizes":[],"default_left":[0],"id":117,"left_children":[-1],"loss_changes":[0E0],"parents":[2147483647],"right_children":[-1],"split_conditions":[-0E0],"split_indices":[0],"split_type":[0],"sum_hessian":[4.9924188E2],"tree_param":{"num_deleted":"0","num_feature":"92","num_nodes":"1","size_leaf_vector":"1"}},{"base_weights":[-0E0],"categories":[],"categories_nodes":[],"categories_segments":[],"categories_sizes":[],"default_left":[0],"id":118,"left_children":[-1],"loss_changes":[0E0],"parents":[2147483647],"right_children":[-1],"split_conditions":[-0E0],"split_indices":[0],"split_type":[0],"sum_hessian":[5.0141846E2],"tree_param":{"num_deleted":"0","num_feature":"92","num_nodes":"1","size_leaf_vector":"1"}},{"base_weights":[-0E0],"categories":[],"categories_nodes":[],"categories_segments":[],"categories_sizes":[],"default_left":[0],"id":119,"left_children":[-1],"loss_changes":[0E0],"parents":[2147483647],"right_children":[-1],"split_conditions":[-0E0],"split_indices":[0],"split_type":[0],"sum_hessian":[4.9763852E2],"tree_param":{"num_deleted":"0","num_feature":"92","num_nodes":"1","size_leaf_vector":"1"}},{"base_weights":[-0E0],"categories":[],"categories_nodes":[],"categories_segments":[],"categories_sizes":[],"default_left":[0],"id":120,"left_children":[-1],"loss_changes":[0E0],"parents":[2147483647],"right_children":[-1],"split_conditions":[-0E0],"split_indices":[0],"split_type":[0],"sum_hessian":[5.0317886E2],"tree_param":{"num_deleted":"0","num_feature":"92","num_nodes":"1","size_leaf_vector":"1"}},{"base_weights":[-0E0],"categories":[],"categories_nodes":[],"categories_segments":[],"categories_sizes":[],"default_left":[0],"id":121,"left_children":[-1],"loss_changes":[0E0],"parents":[2147483647],"right_children":[-1],"split_conditions":[-0E0],"split_indices":[0],"split_type":[0],"sum_hessian":[4.936824E2],"tree_param":{"num_deleted":"0","num_feature":"92","num_nodes":"1","size_leaf_vector":"1"}},{"base_weights":[-0E0],"categories":[],"categories_nodes":[],"categories_segments":[],"categories_sizes":[],"default_left":[0],"id":122,"left_children":[-1],"loss_changes":[0E0],"parents":[2147483647],"right_children":[-1],"split_conditions":[-0E0],"split_indices":[0],"split_type":[0],"sum_hessian":[5.0088513E2],"tree_param":{"num_deleted":"0","num_feature":"92","num_nodes":"1","size_leaf_vector":"1"}},{"base_weights":[-0E0],"categories":[],"categories_nodes":[],"categories_segments":[],"categories_sizes":[],"default_left":[0],"id":123,"left_children":[-1],"loss_changes":[0E0],"parents":[2147483647],"right_children":[-1],"split_conditions":[-0E0],"split_indices":[0],"split_type":[0],"sum_hessian":[4.9393103E2],"tree_param":{"num_deleted":"0","num_feature":"92","num_nodes":"1","size_leaf_vector":"1"}},{"base_weights":[-0E0],"categories":[],"categories_nodes":[],"categories_segments":[],"categories_sizes":[],"default_left":[0],"id":124,"left_children":[-1],"loss_changes":[0E0],"parents":[2147483647],"right_children":[-1],"split_conditions":[-0E0],"split_indices":[0],"split_type":[0],"sum_hessian":[4.9750015E2],"tree_param":{"num_deleted":"0","num_feature":"92","num_nodes":"1","size_leaf_vector":"1"}},{"base_weights":[-0E0],"categories":[],"categories_nodes":[],"categories_segments":[],"categories_sizes":[],"default_left":[0],"id":125,"left_children":[-1],"loss_changes":[0E0],"parents":[2147483647],"right_children":[-1],"split_conditions":[-0E0],"split_indices":[0],"split_type":[0],"sum_hessian":[4.9428552E2],"tree_param":{"num_deleted":"0","num_feature":"92","num_nodes":"1","size_leaf_vector":"1"}},{"base_weights":[-0E0],"categories":[],"categories_nodes":[],"categories_segments":[],"categories_sizes":[],"default_left":[0],"id":126,"left_children":[-1],"loss_changes":[0E0],"parents":[2147483647],"right_children":[-1],"split_conditions":[-0E0],"split_indices":[0],"split_type":[0],"sum_hessian":[4.9765485E2],"tree_param":{"num_deleted":"0","num_feature":"92","num_nodes":"1","size_leaf_vector":"1"}},{"base_weights":[-0E0],"categories":[],"categories_nodes":[],"categories_segments":[],"categories_sizes":[],"default_left":[0],"id":127,"left_children":[-1],"loss_changes":[0E0],"parents":[2147483647],"right_children":[-1],"split_conditions":[-0E0],"split_indices":[0],"split_type":[0],"sum_hessian":[4.9847592E2],"tree_param":{"num_deleted":"0","num_feature":"92","num_nodes":"1","size_leaf_vector":"1"}},{"base_weights":[-0E0],"categories":[],"categories_nodes":[],"categories_segments":[],"categories_sizes":[],"default_left":[0],"id":128,"left_children":[-1],"loss_changes":[0E0],"parents":[2147483647],"right_children":[-1],"split_conditions":[-0E0],"split_indices":[0],"split_type":[0],"sum_hessian":[4.9728137E2],"tree_param":{"num_deleted":"0","num_feature":"92","num_nodes":"1","size_leaf_vector":"1"}},{"base_weights":[-0E0],"categories":[],"categories_nodes":[],"categories_segments":[],"categories_sizes":[],"default_left":[0],"id":129,"left_children":[-1],"loss_changes":[0E0],"parents":[2147483647],"right_children":[-1],"split_conditions":[-0E0],"split_indices":[0],"split_type":[0],"sum_hessian":[4.962505E2],"tree_param":{"num_deleted":"0","num_feature":"92","num_nodes":"1","size_leaf_vector":"1"}},{"base_weights":[-0E0],"categories":[],"categories_nodes":[],"categories_segments":[],"categories_sizes":[],"default_left":[0],"id":130,"left_children":[-1],"loss_changes":[0E0],"parents":[2147483647],"right_children":[-1],"split_conditions":[-0E0],"split_indices":[0],"split_type":[0],"sum_hessian":[4.9187766E2],"tree_param":{"num_deleted":"0","num_feature":"92","num_nodes":"1","size_leaf_vector":"1"}},{"base_weights":[-0E0],"categories":[],"categories_nodes":[],"categories_segments":[],"categories_sizes":[],"default_left":[0],"id":131,"left_children":[-1],"loss_changes":[0E0],"parents":[2147483647],"right_children":[-1],"split_conditions":[-0E0],"split_indices":[0],"split_type":[0],"sum_hessian":[4.9908365E2],"tree_param":{"num_deleted":"0","num_feature":"92","num_nodes":"1","size_leaf_vector":"1"}},{"base_weights":[-0E0],"categories":[],"categories_nodes":[],"categories_segments":[],"categories_sizes":[],"default_left":[0],"id":132,"left_children":[-1],"loss_changes":[0E0],"parents":[2147483647],"right_children":[-1],"split_conditions":[-0E0],"split_indices":[0],"split_type":[0],"sum_hessian":[4.9352118E2],"tree_param":{"num_deleted":"0","num_feature":"92","num_nodes":"1","size_leaf_vector":"1"}},{"base_weights":[-0E0],"categories":[],"categories_nodes":[],"categories_segments":[],"categories_sizes":[],"default_left":[0],"id":133,"left_children":[-1],"loss_changes":[0E0],"parents":[2147483647],"right_children":[-1],"split_conditions":[-0E0],"split_indices":[0],"split_type":[0],"sum_hessian":[5.02268E2],"tree_param":{"num_deleted":"0","num_feature":"92","num_nodes":"1","size_leaf_vector":"1"}},{"base_weights":[-0E0,-4.4077747E-2,1.14673525E-2,7.77119E-3,-1.4398436E-2],"categories":[],"categories_nodes":[],"categories_segments":[],"categories_sizes":[],"default_left":[0,0,0,0,0],"id":134,"left_children":[1,3,-1,-1,-1],"loss_changes":[8.933782E0,1.2367654E1,0E0,0E0,0E0],"parents":[2147483647,0,0,1,1],"right_children":[2,4,-1,-1,-1],"split_conditions":[2.2633333E2,3.1666666E1,1.14673525E-2,7.77119E-3,-1.4398436E-2],"split_indices":[44,47,0,0,0],"split_type":[0,0,0,0,0],"sum_hessian":[4.9513757E2,3.4504236E2,1.5009521E2,8.95614E1,2.5548096E2],"tree_param":{"num_deleted":"0","num_feature":"92","num_nodes":"5","size_leaf_vector":"1"}},{"base_weights":[-0E0],"categories":[],"categories_nodes":[],"categories_segments":[],"categories_sizes":[],"default_left":[0],"id":135,"left_children":[-1],"loss_changes":[0E0],"parents":[2147483647],"right_children":[-1],"split_conditions":[-0E0],"split_indices":[0],"split_type":[0],"sum_hessian":[4.9614307E2],"tree_param":{"num_deleted":"0","num_feature":"92","num_nodes":"1","size_leaf_vector":"1"}},{"base_weights":[-0E0,-5.1087323E-3,8.873407E-3],"categories":[],"categories_nodes":[],"categories_segments":[],"categories_sizes":[],"default_left":[0,0,0],"id":136,"left_children":[1,-1,-1],"loss_changes":[8.02408E0,0E0,0E0],"parents":[2147483647,0,0],"right_children":[2,-1,-1],"split_conditions":[7.6666665E0,-5.1087323E-3,8.873407E-3],"split_indices":[70,0,0],"split_type":[0,0,0],"sum_hessian":[4.9329297E2,2.927384E2,2.0055457E2],"tree_param":{"num_deleted":"0","num_feature":"92","num_nodes":"3","size_leaf_vector":"1"}},{"base_weights":[-0E0],"categories":[],"categories_nodes":[],"categories_segments":[],"categories_sizes":[],"default_left":[0],"id":137,"left_children":[-1],"loss_changes":[0E0],"parents":[2147483647],"right_children":[-1],"split_conditions":[-0E0],"split_indices":[0],"split_type":[0],"sum_hessian":[4.982026E2],"tree_param":{"num_deleted":"0","num_feature":"92","num_nodes":"1","size_leaf_vector":"1"}},{"base_weights":[-0E0],"categories":[],"categories_nodes":[],"categories_segments":[],"categories_sizes":[],"default_left":[0],"id":138,"left_children":[-1],"loss_changes":[0E0],"parents":[2147483647],"right_children":[-1],"split_conditions":[-0E0],"split_indices":[0],"split_type":[0],"sum_hessian":[4.9359586E2],"tree_param":{"num_deleted":"0","num_feature":"92","num_nodes":"1","size_leaf_vector":"1"}},{"base_weights":[-0E0],"categories":[],"categories_nodes":[],"categories_segments":[],"categories_sizes":[],"default_left":[0],"id":139,"left_children":[-1],"loss_changes":[0E0],"parents":[2147483647],"right_children":[-1],"split_conditions":[-0E0],"split_indices":[0],"split_type":[0],"sum_hessian":[4.994743E2],"tree_param":{"num_deleted":"0","num_feature":"92","num_nodes":"1","size_leaf_vector":"1"}},{"base_weights":[-0E0,-1.0906625E-2,5.26338E-3],"categories":[],"categories_nodes":[],"categories_segments":[],"categories_sizes":[],"default_left":[0,0,0],"id":140,"left_children":[1,-1,-1],"loss_changes":[9.1140375E0,0E0,0E0],"parents":[2147483647,0,0],"right_children":[2,-1,-1],"split_conditions":[2.1666666E1,-1.0906625E-2,5.26338E-3],"split_indices":[26,0,0],"split_type":[0,0,0],"sum_hessian":[4.9904614E2,1.2543829E2,3.7360782E2],"tree_param":{"num_deleted":"0","num_feature":"92","num_nodes":"3","size_leaf_vector":"1"}},{"base_weights":[-0E0],"categories":[],"categories_nodes":[],"categories_segments":[],"categories_sizes":[],"default_left":[0],"id":141,"left_children":[-1],"loss_changes":[0E0],"parents":[2147483647],"right_children":[-1],"split_conditions":[-0E0],"split_indices":[0],"split_type":[0],"sum_hessian":[4.9471185E2],"tree_param":{"num_deleted":"0","num_feature":"92","num_nodes":"1","size_leaf_vector":"1"}},{"base_weights":[-0E0,4.9907444E-3,-1.044648E-2],"categories":[],"categories_nodes":[],"categories_segments":[],"categories_sizes":[],"default_left":[1,0,0],"id":142,"left_children":[1,-1,-1],"loss_changes":[7.929447E0,0E0,0E0],"parents":[2147483647,0,0],"right_children":[2,-1,-1],"split_conditions":[9.3333336E1,4.9907444E-3,-1.044648E-2],"split_indices":[61,0,0],"split_type":[0,0,0],"sum_hessian":[4.9996564E2,4.399991E2,5.9966503E1],"tree_param":{"num_deleted":"0","num_feature":"92","num_nodes":"3","size_leaf_vector":"1"}},{"base_weights":[-0E0],"categories":[],"categories_nodes":[],"categories_segments":[],"categories_sizes":[],"default_left":[0],"id":143,"left_children":[-1],"loss_changes":[0E0],"parents":[2147483647],"right_children":[-1],"split_conditions":[-0E0],"split_indices":[0],"split_type":[0],"sum_hessian":[4.9683646E2],"tree_param":{"num_deleted":"0","num_feature":"92","num_nodes":"1","size_leaf_vector":"1"}},{"base_weights":[-0E0],"categories":[],"categories_nodes":[],"categories_segments":[],"categories_sizes":[],"default_left":[0],"id":144,"left_children":[-1],"loss_changes":[0E0],"parents":[2147483647],"right_children":[-1],"split_conditions":[-0E0],"split_indices":[0],"split_type":[0],"sum_hessian":[4.9790607E2],"tree_param":{"num_deleted":"0","num_feature":"92","num_nodes":"1","size_leaf_vector":"1"}},{"base_weights":[-0E0],"categories":[],"categories_nodes":[],"categories_segments":[],"categories_sizes":[],"default_left":[0],"id":145,"left_children":[-1],"loss_changes":[0E0],"parents":[2147483647],"right_children":[-1],"split_conditions":[-0E0],"split_indices":[0],"split_type":[0],"sum_hessian":[4.937925E2],"tree_param":{"num_deleted":"0","num_feature":"92","num_nodes":"1","size_leaf_vector":"1"}},{"base_weights":[-0E0],"categories":[],"categories_nodes":[],"categories_segments":[],"categories_sizes":[],"default_left":[0],"id":146,"left_children":[-1],"loss_changes":[0E0],"parents":[2147483647],"right_children":[-1],"split_conditions":[-0E0],"split_indices":[0],"split_type":[0],"sum_hessian":[4.965119E2],"tree_param":{"num_deleted":"0","num_feature":"92","num_nodes":"1","size_leaf_vector":"1"}},{"base_weights":[-0E0],"categories":[],"categories_nodes":[],"categories_segments":[],"categories_sizes":[],"default_left":[0],"id":147,"left_children":[-1],"loss_changes":[0E0],"parents":[2147483647],"right_children":[-1],"split_conditions":[-0E0],"split_indices":[0],"split_type":[0],"sum_hessian":[4.9171997E2],"tree_param":{"num_deleted":"0","num_feature":"92","num_nodes":"1","size_leaf_vector":"1"}},{"base_weights":[-0E0,9.482738E-3,-7.2896946E-3],"categories":[],"categories_nodes":[],"categories_segments":[],"categories_sizes":[],"default_left":[0,0,0],"id":148,"left_children":[1,-1,-1],"loss_changes":[1.0361673E1,0E0,0E0],"parents":[2147483647,0,0],"right_children":[2,-1,-1],"split_conditions":[1.6303519E3,9.482738E-3,-7.2896946E-3],"split_indices":[37,0,0],"split_type":[0,0,0],"sum_hessian":[4.9724393E2,2.1282777E2,2.8441617E2],"tree_param":{"num_deleted":"0","num_feature":"92","num_nodes":"3","size_leaf_vector":"1"}},{"base_weights":[-0E0],"categories":[],"categories_nodes":[],"categories_segments":[],"categories_sizes":[],"default_left":[0],"id":149,"left_children":[-1],"loss_changes":[0E0],"parents":[2147483647],"right_children":[-1],"split_conditions":[-0E0],"split_indices":[0],"split_type":[0],"sum_hessian":[4.8916022E2],"tree_param":{"num_deleted":"0","num_feature":"92","num_nodes":"1","size_leaf_vector":"1"}},{"base_weights":[-0E0],"categories":[],"categories_nodes":[],"categories_segments":[],"categories_sizes":[],"default_left":[0],"id":150,"left_children":[-1],"loss_changes":[0E0],"parents":[2147483647],"right_children":[-1],"split_conditions":[-0E0],"split_indices":[0],"split_type":[0],"sum_hessian":[5.0526773E2],"tree_param":{"num_deleted":"0","num_feature":"92","num_nodes":"1","size_leaf_vector":"1"}},{"base_weights":[-0E0],"categories":[],"categories_nodes":[],"categories_segments":[],"categories_sizes":[],"default_left":[0],"id":151,"left_children":[-1],"loss_changes":[0E0],"parents":[2147483647],"right_children":[-1],"split_conditions":[-0E0],"split_indices":[0],"split_type":[0],"sum_hessian":[4.985032E2],"tree_param":{"num_deleted":"0","num_feature":"92","num_nodes":"1","size_leaf_vector":"1"}},{"base_weights":[-0E0],"categories":[],"categories_nodes":[],"categories_segments":[],"categories_sizes":[],"default_left":[0],"id":152,"left_children":[-1],"loss_changes":[0E0],"parents":[2147483647],"right_children":[-1],"split_conditions":[-0E0],"split_indices":[0],"split_type":[0],"sum_hessian":[4.9830786E2],"tree_param":{"num_deleted":"0","num_feature":"92","num_nodes":"1","size_leaf_vector":"1"}},{"base_weights":[-0E0],"categories":[],"categories_nodes":[],"categories_segments":[],"categories_sizes":[],"default_left":[0],"id":153,"left_children":[-1],"loss_changes":[0E0],"parents":[2147483647],"right_children":[-1],"split_conditions":[-0E0],"split_indices":[0],"split_type":[0],"sum_hessian":[5.002732E2],"tree_param":{"num_deleted":"0","num_feature":"92","num_nodes":"1","size_leaf_vector":"1"}},{"base_weights":[-0E0,9.180278E-3,-5.60684E-3],"categories":[],"categories_nodes":[],"categories_segments":[],"categories_sizes":[],"default_left":[0,0,0],"id":154,"left_children":[1,-1,-1],"loss_changes":[8.720913E0,0E0,0E0],"parents":[2147483647,0,0],"right_children":[2,-1,-1],"split_conditions":[1.3333334E0,9.180278E-3,-5.60684E-3],"split_indices":[9,0,0],"split_type":[0,0,0],"sum_hessian":[4.9449463E2,2.1205852E2,2.8243613E2],"tree_param":{"num_deleted":"0","num_feature":"92","num_nodes":"3","size_leaf_vector":"1"}},{"base_weights":[-0E0],"categories":[],"categories_nodes":[],"categories_segments":[],"categories_sizes":[],"default_left":[0],"id":155,"left_children":[-1],"loss_changes":[0E0],"parents":[2147483647],"right_children":[-1],"split_conditions":[-0E0],"split_indices":[0],"split_type":[0],"sum_hessian":[5.0014645E2],"tree_param":{"num_deleted":"0","num_feature":"92","num_nodes":"1","size_leaf_vector":"1"}},{"base_weights":[-0E0],"categories":[],"categories_nodes":[],"categories_segments":[],"categories_sizes":[],"default_left":[0],"id":156,"left_children":[-1],"loss_changes":[0E0],"parents":[2147483647],"right_children":[-1],"split_conditions":[-0E0],"split_indices":[0],"split_type":[0],"sum_hessian":[4.9596246E2],"tree_param":{"num_deleted":"0","num_feature":"92","num_nodes":"1","size_leaf_vector":"1"}},{"base_weights":[-0E0],"categories":[],"categories_nodes":[],"categories_segments":[],"categories_sizes":[],"default_left":[0],"id":157,"left_children":[-1],"loss_changes":[0E0],"parents":[2147483647],"right_children":[-1],"split_conditions":[-0E0],"split_indices":[0],"split_type":[0],"sum_hessian":[4.9265628E2],"tree_param":{"num_deleted":"0","num_feature":"92","num_nodes":"1","size_leaf_vector":"1"}},{"base_weights":[-0E0],"categories":[],"categories_nodes":[],"categories_segments":[],"categories_sizes":[],"default_left":[0],"id":158,"left_children":[-1],"loss_changes":[0E0],"parents":[2147483647],"right_children":[-1],"split_conditions":[-0E0],"split_indices":[0],"split_type":[0],"sum_hessian":[4.9827585E2],"tree_param":{"num_deleted":"0","num_feature":"92","num_nodes":"1","size_leaf_vector":"1"}},{"base_weights":[-0E0],"categories":[],"categories_nodes":[],"categories_segments":[],"categories_sizes":[],"default_left":[0],"id":159,"left_children":[-1],"loss_changes":[0E0],"parents":[2147483647],"right_children":[-1],"split_conditions":[-0E0],"split_indices":[0],"split_type":[0],"sum_hessian":[4.9580673E2],"tree_param":{"num_deleted":"0","num_feature":"92","num_nodes":"1","size_leaf_vector":"1"}},{"base_weights":[-0E0],"categories":[],"categories_nodes":[],"categories_segments":[],"categories_sizes":[],"default_left":[0],"id":160,"left_children":[-1],"loss_changes":[0E0],"parents":[2147483647],"right_children":[-1],"split_conditions":[-0E0],"split_indices":[0],"split_type":[0],"sum_hessian":[4.9708844E2],"tree_param":{"num_deleted":"0","num_feature":"92","num_nodes":"1","size_leaf_vector":"1"}},{"base_weights":[-0E0],"categories":[],"categories_nodes":[],"categories_segments":[],"categories_sizes":[],"default_left":[0],"id":161,"left_children":[-1],"loss_changes":[0E0],"parents":[2147483647],"right_children":[-1],"split_conditions":[-0E0],"split_indices":[0],"split_type":[0],"sum_hessian":[4.9352396E2],"tree_param":{"num_deleted":"0","num_feature":"92","num_nodes":"1","size_leaf_vector":"1"}},{"base_weights":[-0E0],"categories":[],"categories_nodes":[],"categories_segments":[],"categories_sizes":[],"default_left":[0],"id":162,"left_children":[-1],"loss_changes":[0E0],"parents":[2147483647],"right_children":[-1],"split_conditions":[-0E0],"split_indices":[0],"split_type":[0],"sum_hessian":[4.9399524E2],"tree_param":{"num_deleted":"0","num_feature":"92","num_nodes":"1","size_leaf_vector":"1"}},{"base_weights":[-0E0],"categories":[],"categories_nodes":[],"categories_segments":[],"categories_sizes":[],"default_left":[0],"id":163,"left_children":[-1],"loss_changes":[0E0],"parents":[2147483647],"right_children":[-1],"split_conditions":[-0E0],"split_indices":[0],"split_type":[0],"sum_hessian":[4.942174E2],"tree_param":{"num_deleted":"0","num_feature":"92","num_nodes":"1","size_leaf_vector":"1"}},{"base_weights":[-0E0],"categories":[],"categories_nodes":[],"categories_segments":[],"categories_sizes":[],"default_left":[0],"id":164,"left_children":[-1],"loss_changes":[0E0],"parents":[2147483647],"right_children":[-1],"split_conditions":[-0E0],"split_indices":[0],"split_type":[0],"sum_hessian":[4.9239877E2],"tree_param":{"num_deleted":"0","num_feature":"92","num_nodes":"1","size_leaf_vector":"1"}},{"base_weights":[-0E0],"categories":[],"categories_nodes":[],"categories_segments":[],"categories_sizes":[],"default_left":[0],"id":165,"left_children":[-1],"loss_changes":[0E0],"parents":[2147483647],"right_children":[-1],"split_conditions":[-0E0],"split_indices":[0],"split_type":[0],"sum_hessian":[5.002858E2],"tree_param":{"num_deleted":"0","num_feature":"92","num_nodes":"1","size_leaf_vector":"1"}},{"base_weights":[-0E0],"categories":[],"categories_nodes":[],"categories_segments":[],"categories_sizes":[],"default_left":[0],"id":166,"left_children":[-1],"loss_changes":[0E0],"parents":[2147483647],"right_children":[-1],"split_conditions":[-0E0],"split_indices":[0],"split_type":[0],"sum_hessian":[5.009354E2],"tree_param":{"num_deleted":"0","num_feature":"92","num_nodes":"1","size_leaf_vector":"1"}},{"base_weights":[-0E0],"categories":[],"categories_nodes":[],"categories_segments":[],"categories_sizes":[],"default_left":[0],"id":167,"left_children":[-1],"loss_changes":[0E0],"parents":[2147483647],"right_children":[-1],"split_conditions":[-0E0],"split_indices":[0],"split_type":[0],"sum_hessian":[4.9980902E2],"tree_param":{"num_deleted":"0","num_feature":"92","num_nodes":"1","size_leaf_vector":"1"}},{"base_weights":[-0E0],"categories":[],"categories_nodes":[],"categories_segments":[],"categories_sizes":[],"default_left":[0],"id":168,"left_children":[-1],"loss_changes":[0E0],"parents":[2147483647],"right_children":[-1],"split_conditions":[-0E0],"split_indices":[0],"split_type":[0],"sum_hessian":[4.9562195E2],"tree_param":{"num_deleted":"0","num_feature":"92","num_nodes":"1","size_leaf_vector":"1"}},{"base_weights":[-0E0],"categories":[],"categories_nodes":[],"categories_segments":[],"categories_sizes":[],"default_left":[0],"id":169,"left_children":[-1],"loss_changes":[0E0],"parents":[2147483647],"right_children":[-1],"split_conditions":[-0E0],"split_indices":[0],"split_type":[0],"sum_hessian":[4.9247864E2],"tree_param":{"num_deleted":"0","num_feature":"92","num_nodes":"1","size_leaf_vector":"1"}},{"base_weights":[-0E0],"categories":[],"categories_nodes":[],"categories_segments":[],"categories_sizes":[],"default_left":[0],"id":170,"left_children":[-1],"loss_changes":[0E0],"parents":[2147483647],"right_children":[-1],"split_conditions":[-0E0],"split_indices":[0],"split_type":[0],"sum_hessian":[4.9743423E2],"tree_param":{"num_deleted":"0","num_feature":"92","num_nodes":"1","size_leaf_vector":"1"}},{"base_weights":[-0E0],"categories":[],"categories_nodes":[],"categories_segments":[],"categories_sizes":[],"default_left":[0],"id":171,"left_children":[-1],"loss_changes":[0E0],"parents":[2147483647],"right_children":[-1],"split_conditions":[-0E0],"split_indices":[0],"split_type":[0],"sum_hessian":[4.9494955E2],"tree_param":{"num_deleted":"0","num_feature":"92","num_nodes":"1","size_leaf_vector":"1"}},{"base_weights":[-0E0],"categories":[],"categories_nodes":[],"categories_segments":[],"categories_sizes":[],"default_left":[0],"id":172,"left_children":[-1],"loss_changes":[0E0],"parents":[2147483647],"right_children":[-1],"split_conditions":[-0E0],"split_indices":[0],"split_type":[0],"sum_hessian":[4.9915778E2],"tree_param":{"num_deleted":"0","num_feature":"92","num_nodes":"1","size_leaf_vector":"1"}},{"base_weights":[-0E0],"categories":[],"categories_nodes":[],"categories_segments":[],"categories_sizes":[],"default_left":[0],"id":173,"left_children":[-1],"loss_changes":[0E0],"parents":[2147483647],"right_children":[-1],"split_conditions":[-0E0],"split_indices":[0],"split_type":[0],"sum_hessian":[4.8947552E2],"tree_param":{"num_deleted":"0","num_feature":"92","num_nodes":"1","size_leaf_vector":"1"}},{"base_weights":[-0E0,5.4130787E-3,-9.899509E-3],"categories":[],"categories_nodes":[],"categories_segments":[],"categories_sizes":[],"default_left":[0,0,0],"id":174,"left_children":[1,-1,-1],"loss_changes":[9.036335E0,0E0,0E0],"parents":[2147483647,0,0],"right_children":[2,-1,-1],"split_conditions":[2E0,5.4130787E-3,-9.899509E-3],"split_indices":[4,0,0],"split_type":[0,0,0],"sum_hessian":[4.97373E2,3.0723587E2,1.901371E2],"tree_param":{"num_deleted":"0","num_feature":"92","num_nodes":"3","size_leaf_vector":"1"}},{"base_weights":[-0E0],"categories":[],"categories_nodes":[],"categories_segments":[],"categories_sizes":[],"default_left":[0],"id":175,"left_children":[-1],"loss_changes":[0E0],"parents":[2147483647],"right_children":[-1],"split_conditions":[-0E0],"split_indices":[0],"split_type":[0],"sum_hessian":[4.9281674E2],"tree_param":{"num_deleted":"0","num_feature":"92","num_nodes":"1","size_leaf_vector":"1"}},{"base_weights":[-6.6067354E-4],"categories":[],"categories_nodes":[],"categories_segments":[],"categories_sizes":[],"default_left":[0],"id":176,"left_children":[-1],"loss_changes":[0E0],"parents":[2147483647],"right_children":[-1],"split_conditions":[-6.162752E-5],"split_indices":[0],"split_type":[0],"sum_hessian":[4.9112903E2],"tree_param":{"num_deleted":"0","num_feature":"92","num_nodes":"1","size_leaf_vector":"1"}},{"base_weights":[-0E0],"categories":[],"categories_nodes":[],"categories_segments":[],"categories_sizes":[],"default_left":[0],"id":177,"left_children":[-1],"loss_changes":[0E0],"parents":[2147483647],